[CLS] 0.10442497 1.0018032 -0.04128827 0.3969658 0.7590085 -1.0336245 -0.8441897 0.54176545 -0.43111092 0.007870269 -0.35338783 -0.09005518 0.43576992 -1.4312816 1.5191196 -0.32506058 0.42021713 -1.3173107 0.016546238 0.802221 -1.0156102 -0.05878499 0.045341365 -0.5745174 0.31094426 0.053617623 -0.36856198 -0.066017784 0.30309248 0.49465477 0.4050908 -0.7443329 -0.31624794 -0.16382316 0.5794452 -1.0351368 -0.47713494 0.11592361 0.2248779 -0.112685844 0.53676605 -0.88819945 -0.74297094 2.6161294 0.6567943 -0.12085495 -0.17540275 0.78808326 -0.49613822 -0.2775337 -0.40652665 9.344526 1.7533485 0.27769792 -0.14503075 -0.34947252 0.35113335 0.038915038 0.20682319 -0.16172317 0.79896224 0.11700576 0.23717983 0.6838459 0.4678472 -0.05820195 0.21748076 -0.17080845 -1.8946999 0.005052343 -0.01822479 -0.494794 0.69476366 0.5407108 -0.938687 0.7547476 -0.42955133 0.7137327 0.32144204 0.72849065 0.13020495 0.29028133 -0.47357345 0.6636883 -0.09135875 -0.4425631 -0.19477743 -1.9803051 0.42609626 0.13415466 -0.13319907 0.37792957 0.11099903 0.03479623 0.5583825 -0.2880057 -0.37198085 -0.74399406 -0.05899425 -2.0482435 -0.069846794 0.8857024 0.49743718 0.18667561 -0.7097772 0.62257767 -0.5566423 0.5890302 0.003389962 0.5631106 -0.8991388 -0.40787452 0.5152066 0.2717731 0.061089616 0.6171099 -0.79905635 -0.37858874 -2.840156 -0.41211545 0.018365435 0.46031514 -0.11505811 -0.86328197 0.3733951 -0.91717863 -0.3917147 0.40776482 0.024626333 0.6763607 2.1836443 -0.73413414 -0.15986943 -0.41183007 2.2751098 -0.7229551 0.56374776 -0.7446943 -1.0018742 -0.4016016 -0.93148065 -1.1067697 -0.39669532 0.4737288 1.6460184 1.1608089 -0.32629168 -0.3203705 1.4470168 0.1421686 -1.1971489 -0.3696624 0.56483483 -0.5178901 0.3423189 -1.324876 -0.21421897 0.022142865 -0.6539931 0.18971124 -0.31608078 0.47847366 -0.90476847 -0.88251704 0.23289528 0.12662984 -0.33958793 0.000489302 0.5306196 -0.1348564 0.04692145 0.852097 0.3787293 -0.4776622 -0.3264633 -1.5378163 0.06486746 -1.2282963 -0.7599125 -0.5224594 -0.14205408 -0.9969738 0.52181023 0.099052675 -0.6750495 -0.2391592 0.1770328 -0.13378032 -0.23206569 0.40351707 -0.2790164 0.6189529 -3.163655 -0.5946915 0.09018974 -0.5526846 -0.74670494 -0.4285283 -0.21198404 0.14195731 -0.9953474 -0.6375867 -0.7112814 1.0186015 -0.072032824 0.21095884 0.22432563 0.20922485 0.64736986 0.15139578 -0.04079169 -0.8493264 -0.93980366 0.19407848 0.35604116 0.5638197 1.1073247 0.49122056 0.20499685 -0.049944688 -0.111091495 0.5600875 0.60580194 -0.6409774 0.4868896 1.2612171 0.7145166 0.9539817 0.9262898 -0.7154522 -0.116198376 -1.0219802 -0.7392875 -0.54519874 -0.49473503 0.6360403 0.5756288 0.006914586 -0.14823994 -0.30252215 -0.6695914 0.19330838 -0.24434963 -0.17935191 0.15981403 1.0164683 0.43992838 0.74990374 -0.6587741 -0.28315392 0.2982708 -1.2059397 0.4004907 -0.5466303 0.7246613 0.56975996 -0.06187388 0.5617568 0.28040448 0.21763541 0.6740395 0.058498956 0.88569975 0.55502653 0.6842105 -0.6675661 1.9218179 -1.4651192 -0.30036646 0.4791021 -0.66208583 0.46803385 0.7942417 -0.6675611 -2.1958425 1.1404263 0.3456156 1.5451611 2.2864318 -0.56929207 -0.56820637 -0.8065548 -0.13565391 -0.27752 -0.6779107 -1.030971 0.15891886 -0.016651502 -0.29256135 -0.1443812 -0.2551415 -0.5152188 -0.42415768 -0.61658454 1.7308185 0.07949059 0.5444025 0.75996697 0.6983247 0.13502187 0.09610431 -0.7157775 0.4114195 0.3610793 -0.56936204 -0.45602986 0.8303149 -0.5587381 -1.0606648 0.037408635 0.013675667 0.3812321 0.5912656 0.7968138 -0.36722097 -0.110416986 -0.37014246 -0.5649072 0.060011983 -0.41914603 -1.0756304 0.25286216 0.16448332 0.95795906 -0.59731853 -0.13634826 0.34993464 0.036849156 -0.37767154 -0.21753833 0.016548485 -0.06836285 0.3687384 -0.49904993 0.13401604 -0.1849176 -0.055870045 -0.3275344 -0.54169923 -0.11760908 0.2523267 0.62220544 0.28842574 0.4905397 0.621184 0.22460216 0.18434021 -0.008824468 -0.60278785 -0.515562 0.07193181 -0.24211615 0.44860542 0.19373971 -0.5200926 1.1632798 -1.0998511 -0.21697086 0.56412214 0.6931765 -0.28030655 0.36283225 0.13236862 -1.4509482 -0.00095294416 -0.13934088 -0.51763767 0.23745337 0.79101074 0.23976858 -0.6358224 0.3893221 -0.22968447 -1.2218813 0.084592484 -0.5278075 -0.32603177 1.1569947 0.5672627 -0.1263363 -0.07493025 0.1763872 1.00091 -4.9444804 -0.34671602 -0.07668002 1.0122269 -0.42474508 0.36124915 -0.60515964 -0.6269669 -0.8998795 -0.5643585 -1.5112702 0.5075274 1.5937775 -1.4687567 -0.120040566 0.5045869 -0.61065125 0.2136191 -0.30827537 1.6514153 0.38135484 -0.61391383 -0.65316164 0.40818638 0.50139993 0.6185112 -0.98637396 -0.27207798 0.11187459 0.35789925 0.6736079 -0.5586733 -0.49712032 -0.25013787 -0.56627345 0.15927094 -0.7515391 0.4975011 -0.11696713 -1.5515165 0.7537492 0.48113403 -0.19163388 0.7869851 0.049103335 -0.5643912 -0.2201719 -0.6192565 0.0027953298 -0.42219767 0.8846564 -0.009268865 0.088365406 -0.5646138 -1.2069567 1.1470336 0.045299064 0.2938131 -0.43651316 0.1982795 0.52780586 0.7031433 1.5406934 -1.6066579 0.78186834 -0.07352401 -0.5148012 0.6284985 -0.40671962 -0.5943364 -0.7748675 -0.28929752 -0.066485345 -0.26639614 0.5726805 -1.6187673 0.1219299 0.5339049 0.22868875 -0.3832627 -0.4565577 0.0393183 -0.3709646 -0.024800839 -0.7396623 -0.48435128 0.5724345 -0.8279789 -0.0010753334 -0.14663717 -0.41525507 0.059779637 0.25792384 -0.011379302 -0.0234361 -0.72251076 -0.34278774 0.33381224 1.2132432 3.2929273 0.14905116 0.21148095 1.2775152 -0.6902348 -0.52985597 1.4422388 0.40172926 -1.4215624 -0.7780148 -0.14353608 -1.3273546 0.40448022 0.0831967 0.009690335 0.20355064 1.4654533 -0.7791579 -0.057536326 -0.9177511 0.6943531 -0.87046105 0.3947643 0.6298149 0.60308164 -0.29961717 -0.63405263 1.1452843 0.448338 -0.31725258 0.4506783 -0.19965118 0.9466368 0.8588128 -0.64449877 0.06542258 0.061496865 0.15538402 -0.547595 -0.51517594 0.90202105 -0.19139175 -0.37697005 -0.7925656 0.3356715 -0.18364537 0.59771025 -0.35443127 -0.40930742 0.09234354 0.004121028 -0.1908683 0.34237477 0.005303297 0.8429546 -0.539857 1.0422034 -0.15735595 -0.53734654 0.2523803 0.66201615 -0.77461976 0.36118245 -0.4204663 -0.49832797 -0.107991725 -0.7589612 0.5236211 -0.19898596 0.08387352 -0.26975316 0.9401265 0.39327082 -0.19770364 -0.5993591 -0.2661795 0.21964575 0.10915084 0.34771043 -0.28022617 0.408346 -0.50027555 -0.25745422 -0.39419487 -1.2717907 -0.259469 -0.82826334 -0.0068238974 -0.6047782 0.85849106 -0.24476129 0.7279129 1.7199315 0.39398307 -0.8228727 0.18487278 -0.17092195 0.096239865 1.0770602 0.47191864 -0.50616246 -0.33423662 -0.61350214 -0.5038619 -0.44181976 0.70614606 0.30673277 0.008307844 1.2632062 0.5794141 0.4627274 0.24280001 -0.35875213 -0.89015085 0.34729934 -0.03305076 -0.50365174 1.7228593 -1.0180337 -0.7078877 -0.07365487 0.5386788 1.1619487 -0.8728776 0.3565346 0.60567904 -0.21408623 0.20666477 -0.0555126 0.28502458 -0.5166597 0.49684468 -0.45721078 1.2423166 0.9774482 0.65979046 -0.07800952 0.4529741 0.042776152 -1.2679586 0.32929352 -0.44818944 0.41474274 0.75938433 1.0970964 -0.22200027 -0.2848575 0.1079577 -0.87028766 -0.13035783 -0.06455895 -0.8101632 -0.07416366 -0.66563153 0.014704432 0.14887233 -0.21379292 -0.7463717 0.36755326 0.5080086 0.5475384 -0.08018725 -1.0320235 -1.0052652 0.6856216 -0.008789346 0.5470485 -0.35659295 1.0447508 0.5046952 -0.094975896 -0.48636234 0.21219477 -0.14088468 0.8750268 -0.3434924 -0.35565192 -0.08673864 -0.46441483 -0.2736707 0.7304729 0.94767505 0.51739293 -0.15827918 -0.27058986 -0.2703047 0.7905284 -1.3659499 -0.16217405 -0.8100845 -0.055736754 -0.78008103 -0.19911024 0.1124514 -0.67956203 -0.57488865 -0.60976726 0.85686284 0.6996706 -1.4338388 0.1468105 -0.06939242 -0.5712693 -0.16282171 0.33239666 -0.086521424 -0.09475233 0.30736092 1.0944335 -0.63013756 0.85457885 -0.35745886 -0.82591915 -0.28441942 0.09584858 0.027755123 -0.18093038 -0.5317088 -0.40128046 0.24376063 0.018754296 -0.12790845 0.33506995 -0.3496254 -0.26375747 -0.61365145 -0.0004704371 -0.4030544 -1.947899 -0.7690636 1.2857081 -1.3149132 0.38046342 0.88436157 -0.24197593 -1.8106573 -0.4771082 1.6015248 -0.21473892 -0.43092197 0.36666888 0.28281897 -0.22823063 -0.636211 -0.25850058 0.7090292 0.17911744 -0.313291 -0.68444777 0.3854499 0.39937907 0.89992964 -0.50621825 1.0469434 3.5599358 0.29292822 0.51542175 0.36601287 0.14548948 0.13487478 -0.62281436 0.26621306 0.007268816 0.4715886 0.06674535 -0.35493916 -0.28713775 -0.47446817 -0.2203116 0.034685846 1.6357707 0.14848073 -0.107571274 -0.12436646 -0.7041558 -0.9130209 -0.15567087 -0.057728 -0.00978807 -0.9752289 0.55644965 -0.25055444 -0.316238 0.7282773 0.69578284 0.19685233 
记 0.90336376 0.93233913 -0.34232542 -0.003946662 0.91079617 -0.49054855 0.3071971 0.79127026 0.16203171 0.32570046 -0.39711136 -1.0568905 0.11353381 0.043756068 0.16739093 -0.5511945 0.2958689 1.2219977 -0.501632 0.76718396 -0.14544159 -0.8138771 -0.21168125 0.29103643 -0.13733062 -0.090367675 -0.37433812 -0.6020812 1.3706673 -0.4160208 -0.21702209 -0.12699743 -0.9841613 0.9802027 0.5066932 -0.586095 0.2703201 -0.80493605 0.22620672 -1.1771735 -0.72587603 0.92528504 -0.89649045 0.3286875 0.16188475 0.33533108 -0.37904102 2.1236126 -0.6976929 -0.5338951 0.16198432 8.879164 0.83761156 0.21681404 -1.4333719 -1.0724497 0.5762682 -0.48056197 -0.15859011 0.45879668 0.13638845 0.721423 -0.094037004 -0.40283906 0.7512554 -0.6869568 0.29185677 -0.2962404 1.5337144 0.0024247468 0.5823546 -0.76872563 -0.345764 0.5020373 0.34649277 -0.37485632 -0.8359351 -0.90883154 -0.20648059 0.85382277 -1.4545062 -0.060053647 -0.5770567 -0.096771374 -0.74933046 -0.83725715 -0.65226966 -0.5896044 0.2296961 -0.72291005 0.124518625 0.9729621 -0.9122694 0.54447854 0.8102224 0.33320728 0.027877022 0.701892 -1.1767584 -1.2039632 -0.20323813 0.13285598 0.39236057 -0.7195946 -0.032269217 1.8749827 0.058709502 -0.24276015 -0.0724898 0.7309206 0.69721895 -0.39240223 -0.48590043 0.7851519 -0.03422991 -0.48125184 -0.30262387 0.1575374 -1.174454 -0.6894157 0.5228885 1.8926312 -0.7452931 -0.21042661 0.55687743 0.6053327 -1.2390356 -0.02734001 0.4233841 0.0034741163 1.1961547 -0.6671213 0.3209436 -1.1049731 0.42051136 0.07709684 -0.6327006 0.02168942 -0.5459327 0.20149791 -0.44726196 0.059041128 1.3252978 0.2031374 0.44688722 1.2933098 -0.16415131 -0.40246886 1.3258172 -0.14772075 -0.6010336 -1.1526452 -0.0066926107 -0.21111809 0.18107088 -0.16623561 -0.58217883 -0.61364126 -0.66869533 0.3423117 -0.8439108 0.39475542 1.1754467 1.4633558 0.27761942 -0.15734711 0.24828058 -0.31437024 0.15053922 -0.34147808 -0.24130262 0.501017 0.28448078 -1.3508983 -0.96027446 -0.5480756 -0.079577014 -1.3924302 0.23994942 -0.14833051 -0.86575955 -0.96561307 0.6646748 0.69490033 -0.6017933 0.5784695 0.29592746 -0.27233297 -0.1484038 0.51181734 -0.44984204 0.13286974 -1.5004709 -0.463493 0.00825277 0.15458304 -0.081023745 -0.026837453 0.8660622 0.97390056 -0.1318475 -0.013625614 -0.4669183 1.3822792 0.36310455 -0.7073842 -0.450565 -0.21805993 0.6030445 0.6501801 -1.3376594 0.56742054 -0.9990261 -0.07173084 0.7061531 -0.23412512 -0.16461228 -0.15977488 0.21405189 0.19416401 -0.9081779 -0.6121165 1.0192189 -0.18051592 0.03741058 0.10171252 -0.388234 0.44812137 0.844778 -0.23555502 -1.1758456 0.35547325 -0.47638452 -0.40148726 1.5643013 0.92763144 -0.23991285 -1.0791845 -0.40044057 -0.69716763 -0.52840865 0.47341222 -0.85589004 0.5085282 0.41307032 0.53882444 0.89657223 -0.30001646 0.2974137 0.9563929 0.93706685 0.70968425 0.14511742 -1.440747 0.99681354 1.3026421 -0.6841176 -0.05033116 -0.16012232 -0.40751898 -0.42038596 0.20745738 0.4067319 -0.89924353 1.4195759 -0.39216065 0.04701373 -1.4001901 -0.2503188 -0.38347006 -1.3911235 -0.47923785 -0.15172604 -0.9733529 0.42006284 0.96795595 -0.40917173 -0.016860066 0.687074 -0.12485466 0.42189175 -1.8775681 -0.72201085 0.5015302 -0.30678633 -0.5804713 0.2807761 -0.63425696 -0.8373817 0.1250296 -0.9592137 -1.0187341 -0.24165751 0.8339748 -0.15808305 -0.42914456 0.60729015 0.17306763 -0.33474016 -0.50515544 -0.27550694 1.5166075 -0.23281197 0.67684 -0.8244507 -0.6386507 0.4789949 0.047251135 0.10154584 -0.75149846 -0.16775188 0.5252154 -0.5454718 -0.75491357 -1.4322362 0.28130543 -0.12937957 -0.10783264 -0.3620784 0.6122622 -0.7346513 -0.30151486 0.058494437 0.5306101 1.2895912 0.076438025 0.66653246 -0.18640997 0.4374167 1.2401683 0.7248233 0.6944555 -1.139383 -0.30546054 -0.018069318 0.9241836 -0.102497846 0.04826279 -1.0403044 -0.6160316 -0.16952969 -0.38311422 0.73633313 -1.002736 -0.16877985 -0.06076229 0.90305126 0.23143588 0.30296752 0.48039615 -0.6571938 0.47249222 0.8022479 0.16503324 0.106147245 0.18536752 -1.8728426 1.2657831 0.5456109 -0.8686364 1.2801683 -0.4639174 0.63494533 -0.13730231 0.9272647 0.7025061 0.065066084 -0.37916547 1.0932086 0.7878392 1.084502 1.3139801 -0.276227 0.11512071 -0.581594 -0.8582313 -0.83829474 0.47614163 0.40694523 -0.07252161 -0.04172966 0.18960913 0.022816654 -0.31550065 -0.6270791 0.20809305 -1.1170139 -0.57234114 0.17954966 1.1271372 -0.16404325 -1.6272628 0.75943136 -0.5402753 0.21480966 0.62959933 -0.2464819 -0.2386863 0.054402508 -0.079973266 0.062062234 -0.49280024 -0.28683418 0.37983695 0.5546823 -0.7768882 -0.15766487 -0.7752805 -0.19131273 -0.33665437 -0.4938711 0.43343496 -1.3137724 0.19056419 -0.25484663 -0.5815035 0.18344936 -1.1729412 -0.02589909 -1.2333454 -1.0432566 -1.922789 -0.065863654 0.041993674 -0.2164436 -0.12807223 0.00316355 -0.54584414 -0.3546213 -1.2371253 -0.81396693 -0.30037487 -1.5789064 -0.09370518 1.0666349 0.34056693 -0.7282993 -0.6784713 0.5855183 -0.069948636 -0.22723787 0.000670081 -0.77173233 -0.1771819 0.62874097 -0.5950728 0.9599625 -0.6398908 1.5865147 -1.174503 0.06169308 -1.4724971 -0.645394 -0.72508985 0.7146775 -0.5939982 -0.14006898 0.50178355 0.68779606 -0.28902853 0.31063658 -0.5152995 -0.10750329 -0.32575706 0.42930922 0.4752127 0.0038545094 0.09852173 -0.37963867 1.3419887 -0.02918046 -0.5159158 -0.09057401 0.529423 -0.56745243 1.4744562 0.56501675 -0.17589332 -2.662791 -0.07913992 0.2940027 1.4358755 -0.4628096 -1.2829354 0.109942146 1.2392644 1.197456 -0.78817284 0.33079892 0.574757 -0.7100531 -0.52778035 -1.379778 0.65811807 -0.22732021 0.8851701 -0.08679475 1.0774432 0.62534916 0.16313712 0.03187902 -2.511925 0.4397714 0.27327597 -1.4242408 0.45599994 0.22304085 0.8027773 -0.030456938 1.9057862 0.6716826 -1.057719 0.3604283 -1.4037241 -0.7684325 0.29194507 0.29978102 -1.7083107 0.104657225 0.036564022 -0.32926813 -0.102018595 -0.07853935 -0.28075105 0.54918486 0.5942011 -0.56141937 -0.33483136 0.1177571 0.34826297 -0.31493276 0.090265244 -0.26882204 -0.5209774 0.4339198 1.4864571 0.7550084 -0.8037163 0.771811 0.20636803 0.31404477 -1.0711515 0.17250353 -1.1616701 -0.40826648 -1.7911392 0.6333219 -0.72574085 -1.6895801 0.9016844 -1.2007374 0.54611725 -0.9464054 0.45999157 -0.12892447 -0.75589937 1.1254778 -0.2915222 0.61906016 0.07599599 0.0178153 -1.2449952 -0.53474903 -0.7643942 -0.79589355 1.0352739 0.16147158 0.4009437 -0.55888706 -1.1242045 -1.158145 -0.3537691 -0.75949734 -0.41179058 -0.45323965 0.712236 -0.5507769 -0.49263123 0.9223983 0.15909559 1.190175 -0.3458035 -0.4766174 -1.2956785 1.4670668 -0.2562431 0.5498039 -0.07148812 0.75762576 -0.73927355 -0.5854132 -0.35513625 0.7467209 0.52263236 -0.16829684 -0.8509566 0.6795596 0.1502222 0.9364886 0.3563839 -0.021775223 -0.057775363 0.13044815 0.23298773 1.055677 -0.48998696 -0.2861846 -0.09811202 1.0387149 0.1761938 0.46329293 0.1828399 0.39255163 0.78390574 -0.6723931 1.0880554 0.47683024 1.183338 -0.8085259 -0.15010148 -0.14490333 -0.42761075 1.0280151 0.6694361 -0.17371821 1.272292 0.33519396 0.48683614 -0.044920072 0.8257427 0.4922075 -1.1213604 -0.20797107 -0.4165672 -0.4920124 -0.78716934 -0.6766143 -1.200495 0.5297823 0.48138174 1.3870727 -0.041570753 -0.7976913 -0.13569535 -0.37236497 -1.0016892 0.89944386 0.30594158 0.30857515 0.5046048 0.56217426 0.69823587 -0.10264496 0.30810916 0.73035854 -0.271435 -0.102247655 -0.62994695 0.7386805 0.66404486 -0.10360378 -0.5824789 1.4670254 0.6771503 0.7126763 -0.06289214 -0.6366803 -0.07325356 0.26162192 -0.06645922 0.9008564 0.073146656 0.37523568 -0.5580283 -0.0065416913 0.8077176 -0.60311866 -0.79099166 -0.36103863 0.32886267 0.85961014 0.008663967 -0.34443274 -0.79413086 -0.25301448 1.8928199 -0.34358796 -0.2710058 0.5597304 0.0796189 1.4885609 -0.53572714 0.7520797 0.17694819 -0.8622948 6.706234 -0.77544427 -0.19749558 0.25493565 -0.5385857 -0.9089639 0.75716466 0.4488162 -1.4507177 0.7453779 0.005289942 -0.33440706 0.32154888 -0.4327886 0.754357 -0.7838839 0.12101407 0.46071604 -0.35368103 0.2651235 -0.14199682 -0.2318258 0.17889163 -0.90529346 0.22702278 0.10301553 -1.3977247 -0.24259491 -1.0803224 -0.4727613 -0.109290086 -0.41837963 -0.22836274 0.6546327 -1.5897348 -0.8404317 0.50650334 0.077187665 -0.8067807 0.71038646 1.2972902 -0.47705537 -0.6652363 1.2195485 0.80319625 -0.1414715 -0.29625642 0.54784214 0.97378176 0.33032134 0.22841172 -0.18256724 -0.10880292 -0.018993944 0.095677435 -0.47275138 -0.3735883 -0.7566809 0.6525945 0.6287605 -0.020401612 3.4827886 -0.07712865 0.7538361 0.0050426014 0.8562964 -0.38594642 1.101962 0.347036 -0.40950626 0.4869523 0.3294297 -0.43474934 
得 0.5119989 0.48989037 0.36381352 0.1633049 -0.031255044 0.1284917 0.08018548 1.0603719 0.36104032 -0.9259179 -0.44068286 -0.63408786 0.0033607855 0.15938267 -0.20898956 -0.924655 0.8017208 0.53036106 -0.63329226 0.28204498 -0.43858296 -0.644066 -0.4863567 0.56802744 0.6664383 0.5872833 -0.011122286 -1.457006 0.4636294 -0.21745598 -0.7430197 -0.5181388 -0.65898186 0.32661802 -1.266913 -0.9168527 -0.4659099 -1.5084718 -0.34945318 -0.23245254 -0.43121976 0.7405995 -0.6256594 0.9140149 -0.124015704 0.19157021 0.40896398 1.3150545 0.2031866 -0.19393162 -0.20417663 7.279195 0.77548224 1.2519252 -0.33052188 -0.41755015 0.48636693 -0.95780075 0.328206 -1.0046208 0.5029658 0.09862634 0.36743462 -0.65357697 0.5304634 -0.7847302 -0.26817706 -1.0389682 1.137048 -0.25013053 0.04258863 -0.8623559 0.06381285 0.18496296 -0.21235406 -0.3135431 -0.5829493 -1.5350744 0.08213304 -0.66370255 -0.79464734 -0.1386356 0.045049906 1.1367981 -0.9672043 -1.070103 -0.70201546 -0.37591356 0.41422206 -1.4433768 0.6731836 0.31961712 -0.36758095 0.39035374 0.09446706 -0.40772116 -0.40875417 0.65302837 -1.637792 0.16061331 -0.98558474 0.26307327 0.0057645924 -0.18145037 1.3837551 -0.36733988 0.5128829 0.04490731 -1.1438946 0.028761469 0.46789062 -1.4631165 -0.08647489 0.53953534 0.26737502 -1.2826492 -0.838691 0.53697807 0.1917189 -0.6665977 0.4645484 1.6619798 -0.7753113 -0.2820686 -0.18284304 0.38158894 -0.26134974 -0.5551201 0.5532517 -0.109170645 1.0131834 -0.13406152 0.35092932 -0.15988253 -0.09751782 -0.17996953 -0.20673954 -0.14224748 -0.72597325 -0.2602257 -0.985955 0.5112948 0.5651024 0.4818043 0.3762806 1.0488802 -0.16534251 -0.67335993 0.33911532 1.1920545 -0.25412628 -0.89459467 -0.18631381 0.03038253 -0.37900674 -0.40070122 -0.97173965 -0.23297983 -0.28433132 -0.5127958 -1.116702 0.17383021 0.6168799 1.3956637 -0.24505365 -0.65412265 -0.5448234 -0.5509031 -0.4190714 -0.31340975 0.7630339 0.5950502 0.8090878 -0.8204968 -1.6538985 0.29110554 -0.17988428 -1.0335381 0.7667502 -0.113631085 -0.079999514 -0.461008 0.716344 -0.74006414 0.8495079 0.637334 0.90003955 0.18619138 0.27853292 0.42134047 -0.4227467 0.36956286 -1.1545706 0.10373472 -0.8482522 -0.45475957 -0.39499256 -0.47470385 0.73512846 0.6695944 -0.9139384 0.33832228 -1.7829479 1.7297665 -0.057070524 -0.7625352 0.43079466 -0.5890809 -0.24160369 -0.15232433 -1.1664423 -0.112358905 -0.73007745 0.3683377 0.97582746 -0.33370164 0.11140885 -0.14412569 0.5484452 0.6130355 -0.57824475 -0.036419235 1.1055588 0.43139318 -0.16044354 -0.16109274 0.47892928 -0.11368634 0.82298225 0.034580737 -0.92559236 -0.1076543 0.33993363 0.08541485 0.91321975 0.8697524 -0.18707615 -0.5127668 -0.91966474 -0.35566717 -0.15862246 -0.466006 -0.49497667 0.36688566 0.51091015 0.38974932 0.1513581 0.18653896 0.15647349 0.44851348 1.4037669 -0.039564773 -0.005733706 -1.139017 1.0785656 0.5016247 -0.47460493 0.14485756 0.051083393 -0.7922386 -0.7807554 0.6613203 0.47369227 -0.91948324 0.8253711 -0.515882 -0.4185559 -1.6746949 0.52700734 0.2019885 -1.1306467 -0.52520764 -0.16660988 -0.43112022 0.5499163 1.3826602 -0.4143709 0.32551956 -0.027138812 -0.47580156 0.6374962 -1.983 -0.80458975 0.85163295 0.696095 -0.48512226 0.09822672 -0.5148495 -1.0142866 0.99158895 -0.77661663 -1.4355049 -0.103685856 0.032605708 -0.16773956 -0.39805043 0.024668008 -0.5076694 -0.76044285 -0.77724445 -0.4867936 0.541068 0.20547214 -0.2881139 0.115175806 0.28705707 0.361243 -0.40440327 -0.45656806 -1.0492555 -0.4534748 0.34031793 -0.54361707 0.37925085 -1.77178 0.50331986 -0.25789928 0.7298822 0.40192646 -0.023265611 -0.44634002 0.43882048 0.07581757 0.30716205 1.0945694 -0.4736513 0.5677815 0.16932787 0.34974566 1.240627 0.72634774 0.24042486 -0.6767701 -0.7385713 0.3300719 0.9548733 0.21950544 -0.31691495 -0.21791187 -1.1090256 0.119338095 0.275046 2.1869738 0.25997883 -0.55645996 0.020013165 0.014085092 0.34951162 -1.088539 0.09920615 0.38313517 1.0661473 1.182059 0.8585437 0.2477215 -0.19120601 -1.9521922 0.6876777 -0.31599534 -0.43730646 1.0731033 0.2578827 0.45715505 -0.7828487 -0.21686581 0.64876884 -0.4562326 0.25289232 0.8075459 0.46344465 1.3671789 0.52141637 -0.58382773 -0.013400499 -1.3023854 -0.50130546 -0.24706912 0.403063 0.13298279 -0.8325629 -0.47020608 -0.24431586 0.25369987 -1.3213662 0.12913075 0.17451477 -1.110927 -1.2826488 0.053613365 1.0756276 -0.30724782 -0.95502716 0.10742974 -0.48089534 1.6905628 0.51329815 0.5208961 0.64673793 0.1500713 -0.4020868 0.03819914 -0.09438159 -0.104447365 0.34198803 -0.08125811 -0.7794496 0.071257845 -0.5414803 0.11545826 -0.3896876 0.19657263 1.3811907 -0.45687297 0.764881 -0.08187158 -0.27845263 -0.33266637 -0.07749107 -0.60188365 -1.3159251 -0.7515704 -1.284901 -1.4071107 0.012206811 -1.1312975 0.110384315 0.5737914 0.47063833 0.1502772 -0.9487028 -0.6203575 -0.6292622 -1.1193578 0.7500839 1.054896 0.37401536 -0.31111643 -1.0056759 1.0017395 0.00031234324 -0.34198788 0.31012934 0.41113514 0.78628165 0.7171423 -0.86028343 0.8468615 0.253081 1.993072 -0.61713076 -0.53819394 -1.6003463 -0.8820009 -0.54929453 0.1522327 -0.39129663 -0.40889934 0.4745658 0.38781834 0.3200824 0.5319669 -0.34401518 0.93623185 -1.1085914 0.54913384 0.50410664 0.47732908 -0.21765211 -0.4011467 1.9537934 -1.1207032 -0.7923434 0.5344367 1.0296131 0.62698907 0.31867865 -0.012946315 0.5465622 -2.9212537 -0.11677975 0.63979995 0.9811018 0.38982886 -0.72876656 0.40204015 0.5129363 1.6171117 -0.79762745 0.51717496 0.3329132 -0.24835153 -0.7990868 -0.50187194 0.39396346 -1.0292519 -0.867175 0.11536406 -0.33609822 0.19608325 0.67682743 0.07342406 -1.8310282 0.61716604 0.23886308 -1.6560618 -0.35328138 -0.26454872 0.17677245 -0.47402954 1.0641172 0.90532404 -1.6580012 0.666988 -1.3418521 -0.20102483 0.49388498 -0.049502566 -0.3774101 0.3632825 -0.09343806 -0.4851736 -0.64348197 0.6159786 0.19033396 0.7992092 1.1963878 -0.38777176 0.02823437 0.4134899 0.89615136 -0.42660326 0.6147749 -0.20068407 -0.78003395 1.9142175 1.6042379 0.8055294 -1.0150923 -0.1841161 -0.03982219 0.24906626 -0.62009424 -0.53060657 -0.30130342 -0.7177504 -1.0255364 0.37884378 -0.037800435 -0.9425461 0.5804219 -1.0670264 1.01566 -0.21606034 -0.008766811 0.5993332 -0.8768058 1.8004109 -0.18641081 0.58071095 -0.047948938 0.12983538 0.0019339547 -1.5086241 -0.01509467 -0.68002725 1.2097975 0.46125624 0.62923795 -0.66178006 -0.8218102 -0.7239437 -0.19301698 -0.8543743 -0.42473328 -0.4267694 1.4399127 -0.2071647 -0.095846936 1.2578892 0.36402452 1.4654938 0.06806265 -0.26051307 0.4529363 0.460719 -0.060250055 -0.41882956 0.24694562 0.1765001 -0.61939806 -0.664764 0.54016817 0.72953916 0.93723214 -0.28053844 -1.1858304 0.3827002 0.27257514 0.2369374 0.93526226 0.3221622 -0.18427604 -0.72821456 0.26685578 0.6144022 -0.2568794 0.03717628 0.6514726 0.73019785 -1.2769452 0.67814493 -0.56199175 0.20858449 1.0793805 -1.2598181 0.7617339 0.29203358 0.16419315 0.4366889 0.35244632 0.03784229 0.048905075 0.82136464 0.74519354 0.6434372 0.6795848 0.88691056 0.63415456 0.3974541 0.93610615 -0.023442943 -0.5150287 0.35918742 -0.30448657 -0.46159744 -0.75474495 -1.1646332 -0.7565305 -0.6988239 -0.12086224 0.5175421 0.39189017 -0.89805865 0.07565886 -0.3833146 -0.26591745 0.06548467 0.63727283 -0.221984 0.49873585 0.31704825 -0.22606316 -0.08765631 0.052122936 0.11356217 -0.5033776 -0.057709217 -0.077062026 0.799405 0.64510435 -0.37373894 -0.5381138 -0.06967756 0.53602594 0.9857433 0.14481726 0.12165086 -0.7360286 0.31270444 0.28066707 1.3166406 -0.01704391 0.917143 -0.32317257 -0.5423243 -0.20493643 -0.1373432 -0.7958703 0.03601563 0.53546196 1.0550491 0.5762966 -1.534274 -1.2336922 -1.142521 1.3724766 0.11231718 -0.12839642 0.567555 0.22834392 1.3694185 -1.4630563 0.23954481 0.54717153 -1.0215617 10.919634 0.27401847 -0.014329858 0.5335707 -0.27810523 -1.4681102 0.5989747 0.030540362 -0.2439101 0.052707646 0.03416866 0.5615276 0.16730212 -0.23259053 0.3049876 -0.26326904 -0.011759579 0.35765734 -0.7832303 0.42412367 -0.21911786 0.032620616 -0.68890595 -0.16206865 0.088375926 -0.21533354 -1.3501463 -1.0573094 -1.4418412 -0.33432516 -0.6612531 -0.1177209 0.090462595 -0.30788967 -2.0914614 -0.15528034 -0.36119553 -0.38095197 -1.0530281 0.38255876 -0.91595954 0.023578264 -0.43858856 1.152384 0.5515631 1.3065243 0.23648001 -0.65358067 2.0417867 0.18590727 0.16772209 -0.6279071 -0.3875497 -0.8298549 0.8278482 0.5624628 -0.5752894 -0.7772965 -0.005299665 0.018111445 -0.17075837 4.4898477 -0.606257 1.601405 0.52946675 1.4550529 -0.9278573 -0.002612412 0.88724524 -1.0742364 0.7514754 1.0263134 -0.18465933 
小 1.2135984 0.44267043 -0.5848928 -0.10879688 0.44146436 -0.7822425 0.17407396 1.445498 -0.34828764 0.5592872 -0.08287048 -0.81385374 -0.92063177 0.8158039 0.027350947 -0.79032296 0.48245123 0.91051924 0.21358591 0.017279007 -0.09369791 -0.21281889 -0.3045235 0.56694704 0.097551346 -1.2607107 -0.32516712 -0.48220292 0.2018461 -1.144555 0.3874023 0.4475397 -0.7561677 0.40562147 0.9942802 -0.175418 -1.1533532 -0.8948601 -0.5899595 -1.525086 -0.73825276 -0.10061877 -0.191802 0.71807367 -0.8985316 0.8812159 0.33118153 1.5887479 0.91648525 -0.1758086 -0.8858969 7.5832314 0.59968793 0.080328755 -0.6038385 -0.38456726 0.8557083 -0.31091344 0.49034366 -0.46196842 -0.48862132 0.11400486 -0.3417607 0.29256713 0.25789064 -0.71411693 0.81372935 -0.85489845 0.61962414 -0.26965415 -0.08389579 -1.2346121 -0.30364534 -0.030796252 0.0011395663 0.539406 0.23692054 0.6423698 -0.26789182 -0.3120572 -1.4827645 -0.24331081 -0.5234229 1.1787529 -0.54031414 -0.1983644 0.37494144 -0.6689319 0.74805313 -1.3377328 -0.25708604 0.90554655 -0.53814536 -0.082333766 0.7980428 -0.026140941 -0.37380254 2.1154058 -0.880021 -0.14580755 -1.9657581 -0.077266626 0.07930201 -0.19062021 0.5943573 1.1383545 0.7927683 1.2523556 0.015470609 1.0184181 0.033189565 -0.21299288 -0.29623505 0.52328146 -0.32633466 -1.1261489 -1.5466944 -0.069031574 -0.6905973 0.6642682 0.77475977 1.40104 0.08790753 0.53067684 -0.05845639 0.53478485 -1.9859705 0.1489971 0.4840122 -1.0043274 0.1494618 -1.1810693 0.05192074 -0.4145043 0.54276824 -0.91930884 -0.4159361 0.6385141 0.049051534 -0.40385866 -0.9407388 -0.3266894 -0.2678896 1.2299795 -0.5851626 1.0573274 0.2109515 0.0096719265 -0.055358592 0.6916106 -1.0801038 -2.0429528 0.42924377 -0.6047828 -0.27387774 -0.6967508 0.26605976 -0.71981657 -0.06577663 -0.4716041 -0.6574118 -0.21219978 1.1867194 1.3929954 0.089103416 -0.71622664 -0.394666 -0.67575717 0.5346662 -0.5892323 0.017270837 0.6537353 -0.73126507 -1.4909122 -1.5255353 -0.053227495 0.41117707 -0.587813 0.12076594 0.57919323 0.3025938 -0.35798132 0.3689236 0.7505671 1.2492428 0.8414713 0.07880863 0.029860757 -0.34698942 -0.47355968 -0.22440541 0.6620499 -1.2553588 -0.23321433 -0.3105784 -1.2312436 -0.97683084 0.42083654 0.757353 0.37937024 -0.17731845 0.026066743 0.23439097 1.1718019 -1.1400632 -0.31208467 0.23834565 -0.94275993 0.00906254 0.33656186 -0.84693867 -0.30010247 0.4571299 0.46231905 0.19058517 -0.6728958 0.21168348 -0.07227795 0.38539445 -0.31743562 -0.3935741 -0.39167035 0.3227996 -0.8644341 -0.14954537 0.048694745 0.9289153 0.45333156 0.70300597 0.73293513 -0.99345523 -0.18711632 1.0752815 0.5990853 0.4535854 -0.5280497 0.458015 -1.4795702 -1.5287865 -0.7644665 -0.52683365 1.0608461 -0.41668028 -0.1488737 -0.44398084 0.1942152 -0.3796563 -0.30934185 -0.6306876 -0.5946443 0.87443405 -0.37501118 0.70658517 -0.38679418 -0.4029361 1.0081998 -0.87880886 0.58260125 0.40939555 0.46027875 -0.68735176 -0.2259967 1.0333564 0.2594256 1.6596732 -1.0610807 -0.4353421 -0.9439227 -0.20340964 -0.98545706 -0.48322648 0.27446148 0.81631756 -0.95712173 -0.16845292 1.4902757 0.6897574 1.463823 0.07883676 -1.0657579 0.93244565 -1.2977166 0.016374901 0.41263667 -0.9236138 -0.6816495 0.94893855 0.15694427 -0.12366372 -0.4813641 -1.1329544 -0.7874539 0.0727216 0.93448824 0.3578703 0.79017866 0.15863076 0.09410245 0.40668422 -0.2161645 -0.011586487 -0.11911297 -0.7083461 0.07533269 0.9168277 -0.7393327 0.69383335 0.3269731 -1.4037056 -0.55667144 0.19063815 0.053860195 0.28741753 -0.9549535 -0.6646963 -0.1531738 -0.8675734 -0.08338496 -0.47270682 0.085665226 -0.486485 0.5345636 0.2486308 0.043652087 1.2336953 -0.26426393 0.39509833 -0.27507162 0.9152608 0.87120783 0.17701769 -0.02476754 -0.7817484 -0.09763973 -0.4024241 0.78119624 -0.32575506 0.19620821 -0.6616713 0.42176375 0.26125306 0.9178933 1.5847111 -0.33335727 0.07961701 0.26474074 -0.14863849 0.20249544 0.20998973 1.4634266 -0.17975858 -0.023906738 0.10830107 -0.4407113 0.81679845 -0.12497094 -0.5701628 -0.2158125 0.067842595 -0.54130983 0.3846491 -0.028803708 -0.0026282668 -0.56276894 0.15105161 2.6367939 0.29350525 0.81112164 0.75354034 -0.1846404 0.90932804 -0.15842593 0.5742077 -0.49231642 -1.4541479 0.5432502 -0.1877557 -0.5763762 -0.40852383 -0.022456422 -1.5195417 1.1997049 0.48124292 -2.3531897 -0.052328553 -0.83126044 0.7026103 -0.43621573 0.7362178 0.37396368 0.0120709315 -1.0573055 0.38556716 -0.23422405 -0.030960135 1.4208213 -0.34689003 0.10415137 0.95738107 -0.5482927 -0.3323415 0.04343117 0.9855812 0.11254684 0.16018447 -0.613035 -0.7264329 -0.37253746 0.891977 -0.22953306 0.19639373 0.37974608 -1.0468237 0.5757442 -0.19069487 -0.1960564 0.13402376 -0.013924425 -1.3296114 -0.34110612 0.49954006 -0.36419886 -0.695879 -1.0758166 -1.0488802 0.15769991 1.7441223 -1.215911 1.1565138 -2.1926086 -0.79406965 -0.09699803 -0.48256904 0.08557396 1.8910557 -0.83568776 -0.89166373 -0.8738514 0.8334014 0.34060597 0.56460196 0.21661142 -0.032156736 0.5370883 0.24226916 0.0037042089 0.31417772 -0.10701406 0.4838962 -0.95100695 -0.26537177 0.41586435 -0.18890482 -1.260583 0.8289467 -0.41519588 -0.63264334 0.35120004 -0.11149092 -0.9984537 0.6872744 -0.32426482 -0.14995654 0.4919149 -0.20848346 1.0121607 0.5976643 0.4357623 -1.0314267 1.3684177 -1.2773819 -0.45491913 0.45772803 0.9470965 -0.90101707 -0.4807407 0.3445518 -0.24375857 -2.8982825 -0.39551607 0.89841056 0.89498633 -0.53300977 -0.67967427 0.9070936 0.23408455 0.9505883 -0.17042036 -0.0014223997 -0.02435717 -0.7422826 -0.3410815 0.07039502 0.43796867 0.053684022 0.24503258 -0.19096114 0.33914846 1.5545583 -0.47290447 0.28464702 -1.9819628 -0.5084549 -0.44923246 -1.6994784 -0.008938716 1.3233657 0.18369597 0.2511419 0.92857826 0.08005324 -1.3087747 1.1150057 -1.0410106 -0.19083732 -0.08702515 0.1258182 -0.76868266 -0.49010408 0.68572915 0.1012411 -0.1784753 0.2809372 0.04409045 2.09399 0.54885614 -0.038897768 -0.11980994 -0.2320588 0.94275033 -0.997751 0.8567243 -0.1989652 -1.102727 1.3601159 1.2848111 -0.028024808 -0.57584476 0.46860284 0.02689445 1.0613804 -0.86559874 1.6215408 -0.35885608 0.1924786 -0.77485025 -0.40109417 -0.17218211 -0.72177565 1.3028302 -1.384264 -0.16856031 -1.3645806 0.55483454 0.63119805 -0.46925646 1.4571201 -0.05465752 0.12697437 0.8724711 1.9228425 0.54644525 0.19860543 -0.23429547 -0.3006787 0.09061964 -1.0707626 0.26755464 -0.23714833 0.80348754 -0.9010519 -0.3389489 0.18434094 0.41233924 -0.37981883 0.7494129 -0.6918089 -0.9667958 1.416933 -0.37841466 1.0665531 -0.45640802 0.29024366 -0.05994524 0.18316275 -1.0693929 -0.51776177 0.124411 0.08394094 -0.0732718 -1.041 0.7776236 0.6644237 0.69048566 0.61060023 0.27361727 0.08587277 -0.65404755 0.022078883 1.4154696 0.023114726 -0.7171425 0.4698948 0.32223997 0.9058039 -0.78238267 -0.30415064 0.6321901 -0.03278727 0.2819891 0.11721844 -0.7534354 0.5380351 1.1105691 -1.2589782 -0.46634045 0.6071524 0.79466003 0.25940812 0.33995304 0.40021032 -0.2919408 0.37075037 -1.0607522 -0.94528145 -0.17626578 0.415499 1.2639885 -0.20263422 0.16316241 -0.13935265 0.19018343 -0.1369737 -0.60045666 -0.58255 -1.1856402 -0.18017127 -0.017712323 0.35854384 0.23216546 0.15355328 -0.038281873 -0.5478348 -0.4716402 -1.1559051 0.7110992 -0.116660714 -0.16689473 -0.5489216 0.3738209 0.31131044 0.29067805 -0.56452376 0.030621752 -0.458287 0.83191216 0.37520215 -0.9255824 -0.46270877 -0.3315615 -0.27659237 -0.4106104 -0.34313345 -0.020144537 0.42733222 -0.3252334 -0.33799285 -0.5220964 -0.44159815 0.40852335 0.8680773 -0.4418518 0.44479603 -0.10422828 -0.2292469 -0.42747092 -0.085357055 0.13630207 -0.5209278 0.87472534 0.8468826 0.49457008 -0.2748101 -0.61904323 -0.45157537 2.1261685 -1.4274005 -0.17351262 0.5448952 -0.08096185 0.8194158 0.20392886 0.011985682 0.020378552 -0.4172276 9.831038 -0.40145144 -0.90323484 0.54138166 -0.24597496 -0.10274395 0.93027484 0.011718687 -0.30356556 0.58294356 -0.85085183 -0.30299497 -0.16007668 0.24895841 -0.11312346 -0.80630004 0.25608975 0.21141744 -0.5319366 0.034537718 0.041655973 -0.47161326 -1.5685102 -0.51011443 0.87836385 -0.602831 -0.9478694 -0.012817867 0.027807169 0.115818344 -1.5860758 -0.4047609 -0.44793448 0.37663934 -0.6818816 -0.35888252 0.010663763 -0.7653919 -0.7511897 -0.47411653 1.4357066 -0.49213013 0.08804107 -0.34644544 1.5267266 -0.48885152 -0.5083985 0.0028169043 1.2637339 0.07061818 0.05782853 -0.03195484 -0.26684266 -0.32977402 1.142501 -0.68988615 0.19088434 -0.3585422 -0.6567991 1.0096097 -0.48019367 3.8856294 -1.0145155 0.1739837 -0.46561995 0.9250303 -0.40119636 -0.116758555 -0.22524914 -1.7269398 0.63874805 0.5243232 -0.38608786 
时 0.84234893 0.43681085 -0.38887933 0.30644938 0.8174619 -0.018520445 0.22845677 0.5280492 0.34450564 0.6242497 -0.5314709 -0.8075551 -0.83583575 0.1323063 -0.53389364 -0.39889365 1.1144569 0.40580553 0.6680154 0.31706834 -0.24038583 -0.37451825 -0.11999189 0.5132448 -0.24174748 -0.012089569 -0.3165322 0.032466717 0.087947056 -0.84841114 0.36520508 0.6345162 -0.92327726 1.0560724 -0.3457927 -0.8778669 0.17165312 -1.7556287 -0.67676073 -1.1874481 -0.79441583 0.14883026 0.20238495 1.1280272 -0.6973918 0.41574717 0.14340867 0.68587196 0.7059918 -0.46827 -1.264571 6.950083 0.08919522 0.23746124 -1.1859137 -0.5867326 1.6308751 0.5245187 0.13052191 -0.61622137 0.08020715 0.2021814 0.09684106 -0.26667407 -0.62221575 -0.702339 1.1629298 -0.15943912 1.5007354 0.048345357 -0.3661008 -0.32833987 -0.22232217 -0.3756334 -0.23236665 -0.072657436 -0.23166957 -0.23757106 0.014876783 -0.43333346 -2.3065531 -0.5347235 -1.0521013 0.5986582 -1.0299675 -0.42338237 -0.19355321 -0.39791209 0.49769554 -1.2227688 0.08922879 0.7259778 -0.23544514 -0.2649438 1.2866118 0.8243967 -0.591407 1.9621868 -0.26991838 0.069435894 -1.3239055 0.78181535 0.7242428 -0.5833781 0.0068355575 1.2212167 0.54095227 0.9087225 -0.43758404 0.7687523 0.32014757 -0.19836645 -0.31371027 0.6293477 -0.22907315 -0.56508934 -0.7687678 0.19616714 -0.6781832 0.51593536 -0.17273787 1.6096051 0.9926033 0.66203547 -0.20959325 0.52473456 -0.44819048 -0.15037781 0.21418342 -0.16634718 0.14391789 -0.25114205 -0.6555606 -0.96319026 0.24556348 -1.0082979 0.022296825 -0.21011364 -1.1556534 0.1237934 0.20614482 0.005776599 0.636936 1.3030409 0.110713445 0.9481428 -0.028389014 -0.6277925 0.34274778 0.32396674 -0.46015322 -1.1546423 0.32626492 0.09060809 -0.586403 -0.5911056 0.17422934 -0.13907164 0.5255747 -0.48609018 -0.29422468 0.18760669 0.50546414 1.9754314 -0.0512318 -0.41349822 -0.8673563 0.15688144 0.6570863 -0.27828094 0.15027905 0.5080013 0.43686435 -1.4497371 -1.5376153 0.6945564 0.40935493 -0.48474538 -0.032113314 0.09318118 0.5947905 0.937298 0.11215249 0.08346835 1.0290184 1.0821743 0.42098156 -0.19448285 0.38124728 -0.39779538 -0.27765822 0.11531699 -0.8936508 -0.45038122 -0.8797005 -0.7129756 0.15809959 0.57843924 1.040828 0.15291786 0.38532472 0.20447233 -0.7273368 1.4568319 -0.14823869 -0.4958045 0.18567717 -1.0349382 -0.09519909 0.5632632 -1.0502664 0.77981967 0.120662525 -0.20128457 0.42121738 -0.455652 0.59010506 0.033107184 -0.20000301 -0.17691387 -0.30757377 -0.56718093 0.6004319 -0.31655532 -0.16838506 -0.074188605 -0.38488507 0.5795551 1.5476651 -0.6048349 -0.8110897 -0.0548822 0.2442738 0.3319963 0.7948928 -0.037973426 -0.20797358 -1.5002264 -1.7752692 -0.5684705 -0.39070934 0.031845793 -0.8135898 0.93036747 0.20128143 1.1640139 0.26709262 -0.04193885 -0.7702646 0.056025952 -0.025311692 -0.15076764 0.106965065 -0.5836711 1.349724 0.790281 -0.20290622 -0.20967656 -0.112299725 -0.096045986 -0.4865713 0.4765762 0.48438656 -1.231684 1.8359877 -0.567414 -0.50176775 -1.2220805 -0.08984363 -0.12871099 -1.0716692 -0.26325542 0.13183309 -0.28457755 -1.380414 1.105165 0.38305485 0.86267674 0.026614234 -0.5135781 0.29642233 -0.6961657 -1.039956 0.047284625 -0.24465743 -0.633995 0.07173688 0.17720643 0.1334253 -0.16260888 -0.14307481 -1.2404952 -1.064613 0.614461 -0.32652012 1.0682019 0.16576225 -0.7892996 -0.3131024 -0.43046564 -0.643474 0.07877581 -0.16443697 0.42493504 0.17250472 -0.9608385 0.35624462 -0.3783602 0.7620488 0.09226517 -0.21891725 0.23343512 -0.17382072 -0.60177624 -1.0143425 -0.07381681 -1.0466117 0.5069225 0.002473481 0.006533183 -0.46175876 0.09680617 0.15068564 0.50470674 0.8067099 -0.5325253 0.79418576 -0.6513148 0.59278274 0.082551725 0.034393646 0.21920162 -0.24901864 0.015263237 0.20087339 0.4230037 -0.45560944 -0.24784082 -1.0601833 -0.17147294 -0.22352658 -0.095581904 1.3048432 0.6329738 0.14891838 -0.029869508 0.54743296 -0.18409245 -0.3128038 1.223614 -0.14324173 0.877159 -0.5393393 -0.56395876 -0.15708491 -0.3974178 -1.2850987 0.34493336 0.09222502 0.28377703 1.0856793 0.039671957 0.36369067 -0.41617623 -0.00016540289 1.9196448 -0.6116998 0.30288625 0.18778566 0.53680056 0.5991024 0.3022284 0.04336019 -0.14902662 -1.6900733 0.038339257 -0.117281415 0.542865 -0.1554423 0.14128199 -1.1072989 0.27263927 0.7229594 -0.17064169 -0.73365384 -0.40842175 0.3813932 0.22390488 0.6627424 0.44847444 -0.30097562 -1.3032662 -0.087477 -1.3880807 -0.08721536 1.5816994 -0.11466557 0.016159482 1.1146605 0.17109482 -0.25902617 -0.55853003 0.45314747 0.47324052 0.72640544 -1.1420741 -0.5401578 0.014439922 0.69792026 -0.12035854 -0.13985443 0.5109436 -0.6626283 0.2785928 0.05114285 0.54677224 -0.25877842 -0.84782165 -0.83585495 -0.34390607 -0.6145638 -1.3503562 -0.36081797 -0.55304116 -0.5350026 0.3104586 1.1647346 -0.8637841 0.8748256 -1.7025712 -0.4013967 -0.07808988 -1.0486317 0.38882035 1.5717227 0.32806763 -0.46274683 -1.0608284 0.17598641 -0.27028462 0.3745297 -0.07981241 0.48655286 -0.060372926 0.29087248 0.113037206 0.4487602 -0.56170076 -0.10404791 -0.5191458 0.14514229 0.072203666 -0.99872404 -0.30080873 0.20402229 -0.015482575 0.7797558 0.7753665 0.53290653 -0.70712996 0.4078002 0.5575591 -0.2194223 -0.4995638 0.036258146 -0.13087656 0.20404667 0.6521795 -0.31654313 1.0202079 -0.57227707 -0.091607444 0.59182084 0.39189065 -0.7365645 0.432219 0.5006836 -0.51834357 -3.0349073 0.55163217 0.56736094 0.48418957 -0.6299168 -0.47536296 0.5123562 0.45722568 -0.23259988 -0.4969667 0.45156854 0.40176013 -0.23219253 0.10276063 -0.59250593 0.1689142 -0.38124236 0.7139696 0.3086824 0.32158774 1.1857768 -0.038000286 0.4378588 -2.8241704 -1.1123397 -0.17574286 -1.3877597 0.21365486 0.40540612 0.5241203 0.18902604 0.7120802 0.736602 -1.5137515 1.0948337 -0.7648877 -0.26301572 0.25548038 0.16639529 -0.47131157 0.47852474 0.10088925 -0.029316211 -0.3238253 0.41549936 -0.5367754 0.95018876 0.71011686 -0.14037189 0.38045344 -0.15756503 -0.39893383 -1.3891402 0.3007898 0.30169815 -0.24345408 0.10808198 0.841586 0.035725117 -0.80998045 0.026912466 -0.1532403 1.5249398 -0.5077267 0.6110098 -1.3514388 0.20998327 -1.8686379 -0.7282008 -0.725053 -0.8947245 0.14963993 -0.762964 -0.46358022 -1.2030752 0.11120669 0.7071442 -0.102065 2.2457535 0.21508875 0.79917186 0.44830805 0.67912245 0.5489204 -0.33958644 0.08167292 -0.25029773 0.060513616 -0.78991365 0.29249734 -0.47042677 0.13923302 -1.3961347 -0.8765202 -0.7178779 -0.13959596 -0.3535378 0.771678 -0.21319422 -0.41908702 1.0447589 0.19842803 1.1650097 0.4892068 0.06313659 -0.30885574 -0.038795054 0.006802326 0.025466595 0.5048472 -0.15803091 -1.0064595 -1.603338 0.68042296 0.52492726 0.43957424 -0.40096247 -0.8607362 0.4604609 -0.07956366 0.37012374 0.561339 -0.63531065 -0.06320264 -0.67919797 0.0401138 0.6784427 -0.6160658 -0.8023881 0.11191839 0.06775871 0.72037685 0.7946013 -1.7023294 0.085381165 0.31091183 -1.8424935 -0.14099163 0.3836339 0.41040337 0.66857696 -0.052963987 -0.098917186 0.38965756 0.52398354 -0.88618344 -0.02422178 0.30599853 0.6175604 0.7846315 -0.5257085 -0.54715127 -0.055030733 0.055376194 0.2113779 0.08951217 -0.55339855 -1.0347596 -0.4775068 -0.42069477 0.53362954 0.06110853 0.44795334 -0.20696807 -0.76853925 -0.14391944 -0.3795925 -0.53242147 -0.6657146 1.2688658 -0.86545014 0.21452253 -0.07096607 0.16039161 -1.1869766 -0.515908 -0.25436863 0.7816129 0.048135713 -0.053384632 0.50636077 0.40760162 -0.30029267 0.12327266 0.27816576 0.9390175 0.07396527 -0.08789337 -0.15454604 -0.5989642 -0.07583436 0.09984963 0.9481548 -0.17032981 0.46139264 0.17005783 -0.26223415 -0.44434214 -0.6205239 -0.521944 0.01568529 0.41859198 1.2455952 -0.8143894 -1.0327759 -0.85906065 -0.6278332 1.4713217 -0.7653558 0.08117837 0.62055403 -0.62407184 1.492178 0.29998294 0.29570496 -0.006019816 -0.18627706 14.290849 -0.5793645 -0.63263506 0.45548344 -0.20625484 -1.0565232 0.6794784 0.11335016 -1.3345373 -0.03768341 -0.48941404 0.7261994 0.65587443 0.069263704 0.70582163 -0.8405303 -0.041886672 -0.77067935 -0.37858826 -0.79121447 0.22843486 -0.64250946 -0.24631739 -1.1035522 0.7940586 -0.6485102 -0.71362114 -1.207889 -0.7324479 0.7278521 -1.371037 0.018340964 -0.11372307 0.47388926 -0.72193015 0.11038062 0.6274409 -0.006364897 -0.59197295 0.10117165 1.4801195 -1.0947812 -0.77823853 0.8812568 0.8147571 -0.288837 0.22174661 0.73461634 0.23376322 0.68545115 -0.13143566 -0.0041198283 0.29515147 -0.89670813 1.402286 -0.09634025 0.025779758 -0.458277 -0.17251287 0.48438388 -0.94291407 5.15822 -0.13774674 0.32014444 0.10665087 1.4341557 -0.38999587 -0.27328846 -0.07601268 -1.4622468 0.5870373 0.7843999 -0.42569175 
候 0.46251512 0.21288942 -0.59099555 -0.26447338 1.1433048 -0.07475276 -0.06645863 0.41146308 -0.06565807 0.63935125 -0.4314645 -0.90063345 -0.52956504 -0.03248541 -0.18128183 -0.6266136 1.2392352 0.31302303 0.31014633 -0.11129668 -0.7083827 -0.72486115 -0.2092269 0.7655391 0.0007936172 -0.1542822 -0.67082334 -0.3538225 0.08364721 -0.3934866 0.2203008 0.27252695 -1.4883214 0.5334823 -0.17596883 -0.83822757 -0.340814 -1.5145394 -1.3129194 -0.8270344 -0.6297877 0.34208763 -0.28194928 1.0944022 0.039042175 0.021771647 -0.04038085 1.0550008 0.45996663 -0.33914894 -1.0437814 8.282499 0.37590903 0.17934622 -1.001669 -0.17167784 1.1282613 0.1838335 -0.038820885 -0.9391501 0.1684107 0.08048592 -0.1262848 -0.1790288 -0.7985468 -0.17910257 1.0891528 0.10484511 1.478349 0.050191447 0.0050586835 -0.3985145 -0.10079111 -0.72809476 -0.3223049 -0.0015245546 0.14579737 -0.35487753 -0.32560846 -0.19524534 -2.268635 -0.5428991 -0.47142494 0.4878356 -0.79136926 -0.8236542 -0.59110516 -0.38413966 0.4681762 -1.0843732 -0.080858946 0.76559466 -0.116865575 -0.10242766 1.395875 0.8264316 -0.3858666 1.6084182 -0.8901548 0.5519308 -1.8179883 0.7569058 0.34241587 -0.24779499 -0.38787925 1.66167 0.7434781 0.48105118 -0.5001733 0.3260618 0.8915101 -0.7750728 0.03901336 0.77878964 -0.3392245 -0.4240576 -0.80495626 0.4133511 -0.49292308 0.4998153 -0.22982597 1.4893073 0.5415062 0.11445096 -0.29943025 0.44943553 -0.73307216 0.03110753 0.2612728 -0.050732553 0.5317302 -0.4483434 -0.3684225 -0.60342574 -0.26295844 -1.0668228 0.4308758 -0.5151042 -1.25649 0.31427974 0.4599216 -0.1630857 0.94194984 1.2665628 -0.62173307 0.67915136 0.08626706 0.14416026 -0.34416026 -0.041750938 -1.0566274 -1.421378 0.7410587 0.13883534 -0.11065476 -0.2490438 -0.019493911 -0.27826157 0.24823114 -0.9219622 -0.26202592 0.37865657 0.16369079 2.531086 -0.46477813 -0.86539024 -1.1975863 0.07431227 0.48986346 -0.10067153 -0.025802694 0.50653595 0.5625969 -1.33568 -1.6225718 0.8458881 0.32536244 -0.3519845 0.5101594 -0.09523761 0.3227572 0.41329193 0.9082619 0.03173647 0.62156904 0.841784 0.20373864 0.39384532 0.119751856 -0.04519725 -0.64196527 0.08918661 -0.80725175 -0.76021713 -1.2942649 -0.6794255 -0.13444795 0.041016567 0.8060414 -0.1353844 0.27932435 0.51895934 -1.0395952 1.2324545 -0.042322647 -0.6003772 0.9074813 -0.62098473 0.35207686 0.27339464 -0.4570263 0.04192186 0.10089417 -0.77570057 0.7049344 -0.35351288 0.7346713 -0.22953841 -0.3073997 -0.06377493 -0.39376897 -0.08642692 0.68568987 -0.6590141 -0.40985984 -0.39469668 -0.72087026 0.20117618 1.6216135 -0.64649 -0.786918 0.087133706 0.2890398 0.48549235 0.8257558 -0.078547396 -0.044359263 -1.737601 -1.5945055 -0.14828728 -0.059198864 -0.15072666 -0.5255474 0.9659179 0.6979338 1.2503693 0.08209973 -0.115115486 -0.8201938 0.13545729 -0.042240344 -0.47516006 0.0056791753 -0.5625552 1.3196343 0.5641968 -0.5389932 0.08129357 0.15389404 -0.24631435 -0.53255796 0.7710815 0.004216194 -0.9495911 2.1629372 -0.69551647 -0.55632377 -1.3503867 -0.13431318 0.29307875 -1.2797754 0.56605506 0.031582166 -0.58128065 -1.2589407 1.2306188 0.73047847 0.7303871 -0.48713753 -0.66408664 0.86276376 -1.2381784 -0.39468402 0.08264503 -0.8708348 -0.115252115 -0.20972458 0.06148682 -0.02066812 -0.0015464127 -0.853205 -1.5145992 -0.69325095 0.60198456 -0.70899945 0.6769037 0.42427084 -0.56253433 -0.5091721 -1.0530239 -0.624678 0.14089973 -0.57982206 0.53806573 0.3454339 -0.7874062 0.29022226 -0.55689317 0.6792855 -0.12580371 0.00079935044 0.71217644 -0.6567904 -0.27471706 -1.0488927 0.08966997 -0.66955143 0.9847696 -0.33552665 -0.6718994 -0.54267955 0.28591275 0.9417769 0.95835245 0.92773235 0.04747625 1.254507 -0.5084269 -0.14181527 0.3640928 0.55454516 0.41263843 -0.41371304 -0.17868844 0.11476691 0.5752109 -0.38145036 -0.8218535 -0.9563314 -0.3773088 -0.112023905 0.31522352 2.1847575 0.7402431 -0.37601465 -0.19576679 0.75014913 0.3940214 0.06386778 1.2636853 -0.5901613 1.1535974 -0.4695422 -0.11280374 0.4938034 -0.17962804 -1.8249122 0.38639534 0.21984565 -0.25973886 0.6795511 -0.23433962 -0.004154235 -0.8609271 -0.37927434 1.4172311 -0.79189014 -0.03628761 0.18887444 0.44340456 0.19136953 0.3072707 -0.4582486 0.48044917 -1.7550555 -0.18078226 -0.30763316 0.95394105 -0.23230264 -0.38206157 -1.3080053 0.36918652 1.0915679 -0.34092548 0.0030605942 -0.54498214 0.38106194 -0.063781455 0.89269364 0.5358003 -0.3663572 -1.5048146 0.11488907 -0.9111194 0.15389484 1.2284368 0.028553322 -0.4077292 1.3359896 0.30049473 0.22300488 -0.46485794 0.40127727 0.7770415 0.38034558 -1.2800614 -0.45015433 -0.06669887 0.54139924 -0.21973397 -0.09341965 0.24671438 -0.63467014 0.84054387 0.16773343 0.8383 0.23288694 -0.74679685 -0.33985093 -0.30061048 -0.5037321 -1.0943396 -0.44654566 -0.5988214 -0.45967153 0.023443744 1.473221 -0.8682186 0.7151802 -0.83999443 -0.3284964 -0.23234373 -1.5605003 0.372788 1.1618073 0.46259388 -0.35672233 -1.009702 0.37288165 -0.29835105 0.399967 0.45873222 0.28263605 0.08168636 0.42165518 -0.1027212 0.81764793 -0.45104787 0.40921253 -0.3320024 -0.58806777 -0.047294572 -0.7374251 -0.06905949 0.2716533 -0.45299962 0.83875406 0.5497044 0.17951114 -0.5626094 0.6962814 0.2940925 0.30176508 -0.27785715 -0.34689072 -1.1462489 0.34171003 0.74961233 -0.629013 0.3489595 -0.7275428 -1.0379118 0.017016998 0.41948122 -0.38813058 0.07481157 1.1783301 -0.60154766 -2.8780475 0.06063561 -0.0016800165 0.57378036 -0.053612657 -0.24889496 0.60702413 0.49313486 0.9482562 -0.105766416 0.55444866 0.5052177 -0.2750172 -0.08360544 -0.5560254 0.32877988 -0.89763784 0.254805 0.5112824 0.46213448 1.1994468 -0.51349735 0.42096514 -2.320198 -0.81302756 -0.26700577 -0.8217543 0.39306623 0.5006246 0.06273904 0.049334884 0.08740927 0.53683 -1.7630479 1.289257 -1.427614 -0.72614837 0.22695479 0.4128964 -0.64938074 0.35515893 -0.024966374 0.11386588 -0.3610984 0.9658735 -0.5578104 1.197727 0.59145296 -0.21013379 0.16223016 -0.103227526 0.072988 -0.8937201 0.7236366 0.28012902 -0.17259072 0.29816556 0.18791573 0.629213 -0.6791629 0.18840404 -0.87553656 1.1059818 -0.2396312 0.6514012 -1.292588 0.08434768 -1.1622576 -0.5622976 -0.69813114 -0.701617 -0.1796834 -0.94485885 -0.37145212 -1.0046709 0.69755846 0.7409722 0.3713178 1.8696231 0.5299959 0.7158663 0.6155521 0.2813328 0.28223574 -0.46027064 -0.23410693 -0.6530845 -0.199142 -0.5376642 0.49413687 -0.4799617 0.09011589 -0.68334115 -0.43834174 -0.7767762 -0.19029082 -0.89706063 0.9488508 0.085283875 -0.25652328 1.1162797 0.083783336 0.86461115 0.41520837 -0.00012989342 -0.06913939 -0.39157522 -0.06884834 -0.12157585 0.21025488 -0.0023494214 -0.34693104 -0.8611032 0.4818487 0.19042745 0.31451756 -0.42128712 -0.4546288 -0.020930924 -0.031406388 0.73527265 -0.19557671 -0.49437907 -0.15209216 -0.45318997 0.38584238 0.28918362 -0.40126663 -0.5150268 0.47690302 0.05351456 0.6189149 0.7661259 -0.61237323 0.44296956 -0.05862327 -1.443943 0.049131066 0.7414204 0.5878191 0.63826424 -0.07302742 0.21714114 -0.23890333 0.033572637 -0.7016945 0.5535415 0.37876132 0.6455159 1.3585622 -0.024049059 -0.023243345 -0.3545371 0.041521683 0.37229162 0.13705488 -0.53138626 -0.8924001 -0.62213695 -0.81500256 0.10977456 -0.1341531 0.5728022 0.29840273 -0.7721516 -0.3612629 -0.42504907 -0.75477505 -0.81831646 1.0359238 -0.5976527 0.02905009 0.61243206 0.4164719 -1.5163298 -0.6416646 -0.45074797 0.43401152 0.038912475 -0.51456857 0.5052874 0.59930986 -0.5454357 -0.61194855 -0.096875474 0.811932 0.3109479 0.34641945 -0.01749089 -0.030672282 0.7756283 0.020452239 1.10319 -0.44312114 0.3408317 0.15061969 -0.1644686 -0.46632385 -0.9562835 0.004943583 0.5126728 -0.06412515 1.1502596 -0.14774719 -0.5786991 -1.3533715 -0.21262796 0.9855016 -0.6362284 0.22003871 0.61510426 -0.16212367 1.1483564 -0.13281202 1.0839425 0.49994293 -0.07621609 12.327315 -0.53694403 -0.6366559 0.030367278 -0.14575708 -1.1822354 0.5236784 0.07649228 -0.9018766 -0.26272672 -0.35736686 0.6670058 1.2700231 0.093460254 0.3016941 -0.7593371 0.047447234 -0.6104473 0.12207426 0.04595699 0.45385855 -0.81294996 -0.22156796 -0.9713316 0.44736496 -0.77339447 -0.86684704 -0.47005305 -1.4188846 0.61974645 -1.0708334 0.23519798 -0.12684873 0.29838943 -0.77454686 0.032497246 0.12309433 -0.05726515 -0.6127244 0.1768142 0.95329523 -0.59444594 -0.17616716 0.35071915 0.24976537 0.076707125 0.019044697 0.33510354 0.9277964 0.5825851 -0.13544911 0.56170946 0.38844526 -0.976631 1.2619396 -0.43288457 -0.3939597 -0.55140096 0.43237644 0.62533337 -0.9836709 4.546906 -0.14688484 0.30744687 0.10457292 1.0654845 -0.14775464 0.311859 0.16605568 -1.404768 0.2202058 1.1519469 -0.5952357 
， 0.5801321 0.94639695 -0.35860997 -0.052862942 0.96499395 -0.26336944 0.19682509 0.20319131 0.72858524 -0.10274725 -0.78878945 -0.6424494 -0.82085794 -0.25442824 0.3990143 -0.15601069 0.30272448 0.4663337 -0.5179732 0.19624995 -0.36413455 0.3374045 -0.47666004 -0.8417881 -0.2658723 -0.68488514 -0.06511244 -1.7721004 0.64305216 0.47999817 0.59762484 -0.36431083 -1.099341 -0.09793487 -0.09386303 -1.5310762 0.092851885 -1.5359309 -0.13070948 -0.43251154 -0.019547746 -0.13336354 -0.6648519 0.44904727 0.8470821 -0.40154546 0.7165665 -0.17984869 0.79893935 0.30296206 0.15075554 9.7678385 0.4264325 0.7230128 -1.0147133 -0.4862777 0.87836844 0.30432647 0.17828357 -1.1615074 0.47029465 0.4780338 -0.24771477 -0.07920737 -0.3739977 0.60207075 0.46055797 -0.51691234 1.1084112 -0.31142867 0.005429432 -0.5689416 -0.51371175 0.19486865 0.15719707 0.16061044 0.022451852 -0.0895837 0.9237124 -0.53069985 -1.190491 -0.082253635 -0.2099932 0.5662242 -1.3710451 -0.87538445 -0.59354204 -1.1984724 -0.14875025 -0.87981725 0.1045393 0.4003612 -0.19417489 -0.3029714 0.52451456 -0.15244672 -0.56405413 0.33882385 -0.9767183 0.745036 -2.840465 -0.1696282 0.14916639 -1.1710681 0.96923995 0.8708096 -0.56630766 1.1123734 -0.08450353 0.7101224 -0.16852307 -0.47815266 -0.25208938 0.26734957 -0.34300992 -0.5388553 -0.5253182 -0.4876981 0.19833757 0.19425945 -0.21417847 0.43457314 -0.43734324 -0.21905437 -0.75251323 -0.4782341 -0.48271826 0.2409403 0.1666064 0.3494196 0.8422254 -0.15542766 -0.6934574 -0.12014435 0.13244094 -0.78212124 0.21129528 -0.5447992 -0.6328364 -0.08924517 -0.4568952 -0.20115545 0.093278125 0.29105613 -0.4279664 0.988755 0.06242362 0.26477468 1.5104983 0.35427397 -0.3546925 -0.41515654 0.5701673 0.24721879 -0.43184423 -0.5132366 -0.6109478 -0.4738465 0.6519948 -1.0175068 -1.1271038 -0.6186875 0.761537 0.8481412 0.7729606 -0.7182859 -0.14891396 -0.7264484 0.1318765 0.67799217 0.15554646 0.13396989 0.41403615 -1.0996289 -1.0279341 -0.37564933 0.14426194 -0.3306043 0.5036971 -0.014019504 -0.34408173 -0.39298648 0.041418865 -0.3108887 0.6389564 1.1315641 0.020511165 -0.09348783 0.29630247 -0.46236962 -0.93309903 -0.04954225 -0.06061565 -0.48125792 -0.756049 0.012631472 -0.6221912 -0.5449613 0.98967457 0.16680601 -0.64427423 -0.045638226 -0.5822726 1.4204918 0.16561854 -0.07716723 -0.189793 0.23121417 0.17710681 -0.82247937 -0.34328634 -0.17713508 0.046886846 0.054210193 0.62632716 -0.5116372 0.59947056 0.47235626 -0.07762031 0.40608492 -0.20400378 0.36440334 0.5819662 -0.4611221 -0.32604218 0.7065935 -0.5901627 0.77501595 1.2015471 -0.736797 -0.29786712 0.5149753 -0.17230184 0.45719224 0.25968915 0.19916569 0.08366504 -1.3908867 -1.1634369 -0.3303445 -0.23306102 0.17054638 0.07190451 -0.12488124 0.9587484 0.31391007 0.4531133 0.53155506 -0.16815975 -0.4880606 0.8900656 -1.3579718 -0.38881633 -0.9093622 1.197565 -0.12595236 -0.5681031 1.2909687 0.46433333 0.15798843 0.035245024 1.0171415 1.1297755 -0.94896585 2.4298632 -0.87523115 0.29395133 -1.0975095 -0.28685468 1.014788 -0.8688711 0.24209148 -0.45765793 -0.2514028 0.24726021 1.8539418 -0.353447 0.21708223 -1.2588875 -1.1834424 -0.8200214 -1.2854941 -0.67555714 0.27584666 -0.60231763 -1.4978492 -1.3475662 -0.23925088 -0.11605652 0.3044954 -0.9780912 -0.4931828 -0.22311987 1.0147688 -0.039428025 0.42046672 0.06540491 -0.08600412 -1.0938069 -0.48896992 -0.79374707 -0.60532385 -0.35495418 0.23629105 -0.44051802 -0.7310517 0.79363847 -1.0214553 0.7403635 -1.1284871 -0.47067934 0.19838679 0.06906756 -0.041650027 -1.0792289 1.1366762 -0.592467 0.30132636 -0.048426032 -0.07372501 -1.1313944 0.4904822 0.8766678 0.44981778 0.75352937 0.79616374 0.48691905 0.21390823 -1.0425467 0.6079614 0.22037041 0.681018 -0.13236977 -0.22891575 0.17331827 0.966353 -0.021578226 -1.3133347 -0.7638332 -0.63289267 1.0569782 0.5818478 1.5642409 0.11793168 -0.5915993 1.1033255 0.6235653 -0.061358117 -0.46058428 0.27347273 -0.28462058 1.1312485 0.7982624 -0.4656998 0.26924393 -0.27057204 -0.751999 -0.40625024 0.759778 0.004409969 0.6079368 0.024061494 -0.24913429 -0.43626642 -0.24811631 0.7860686 -0.54992354 0.058177046 0.71654207 -0.039241526 -0.005335167 0.5198982 -0.5162034 0.7004731 -0.44440234 -0.5727804 -0.6464713 0.17332375 -0.8444156 -0.3556769 -1.6736732 1.4720074 1.2729329 -1.1088805 0.38819465 -0.122509174 -0.05568288 -0.65065527 0.3732987 1.0318978 -0.89951867 -0.5792258 0.046315417 -0.21583104 1.2606312 0.96348417 -0.20155208 0.32092106 0.11597454 0.11342493 -0.6466917 -0.4606037 0.029064495 0.3850741 0.3700923 -0.35167336 0.14568542 0.10680562 -0.098819055 0.9392331 0.4961721 0.05684935 -0.5389377 0.5079538 0.10460388 0.1644171 0.60135674 -0.56769395 0.1966556 -0.84331536 -0.058696307 -1.1877651 -1.7140518 -0.13070488 -1.8648837 0.4379132 0.879716 0.26581454 0.976981 -0.65778506 0.41103435 -0.61764896 -1.0291015 -0.059174426 0.30106306 -0.66302407 -0.75527215 -0.91254413 0.9934898 -0.59786046 0.49798098 0.93760854 0.05637811 0.86441827 -0.07677161 -1.0204525 -0.22691801 -0.26687706 0.5689336 -0.26280552 -0.051236607 -0.78513366 -0.472786 -1.2263427 0.019656792 0.14039168 0.05811292 1.0217025 0.4376339 -0.725071 0.7695437 -0.24200891 -0.4817512 -0.23369041 -0.4164101 -0.31982362 0.7097482 0.68031913 -1.0131118 1.1409287 -1.0698427 -0.20560256 0.09969933 0.5681015 -0.16168621 0.32340434 -0.0106553435 -0.42783016 -2.650803 0.2228379 0.43094742 0.65412265 1.0133662 -0.78767145 -0.57561904 1.4174802 1.148104 -0.7567691 0.8367248 0.8239192 -0.9410219 -0.8144517 0.5554781 -0.59217274 -0.5722145 -0.5040226 0.0487883 -0.25293148 0.4152092 0.16475157 0.42579693 -0.7271776 0.43153006 0.84007585 -1.1629745 0.9892864 -0.21394771 -0.21771416 0.28579658 0.28863683 1.5969658 -0.68525255 0.7920429 -0.30667984 0.3844605 -0.29182184 -0.24792202 -0.43377978 -0.50915885 0.68611765 0.69394875 -0.63350344 0.520788 0.12949915 0.5720838 0.36838436 0.38727358 -0.5850809 0.8529531 0.47754532 -1.2304182 1.1620944 -0.5227342 -0.4225595 0.8174532 1.1652075 -0.09250325 -0.5711414 0.07088263 -1.1982139 0.040838204 -0.17540595 0.2523441 0.44408607 -0.36605963 -0.7555251 -0.53228366 -0.97508353 -1.7422723 0.12628247 -0.39022863 0.039310604 -0.46508667 0.5093816 -0.4579519 -0.6545742 1.201322 0.46026638 -0.2636566 1.2484303 1.0525751 0.67747223 0.14368732 -0.44345546 -0.42426503 0.2756589 -1.4560262 0.7501964 -0.7157252 -0.15276371 -0.37258887 -0.6138886 -0.06577478 -0.019635841 -0.14166309 0.9228585 -0.7966123 0.025127478 0.61806685 0.6670256 0.933007 -0.37392157 -1.1510396 0.6377334 -0.7163454 -0.91986287 -0.54628867 0.13687944 0.37428448 0.22121848 -0.58156705 0.5701684 -0.12572798 0.3200828 -0.16148338 -1.5848587 0.6884924 0.3910089 0.34010318 0.66299826 -0.09516496 -0.8928251 -0.07140263 0.60316 0.806894 -0.34674308 0.6898394 0.25589246 -0.4525624 -0.4884447 -0.08470029 0.1256334 0.3771552 -0.03902697 -0.61219245 -0.32388312 -0.097702645 0.40272388 0.54543316 1.0141916 -0.45339054 0.21273874 0.6248126 0.43420476 0.26338938 -0.1942626 0.36749947 0.40438172 -0.78635514 0.19619137 -0.7162142 -0.49982506 0.039440423 0.40372074 -0.8515688 -0.95931613 -0.2902421 0.10887958 -1.3272406 -0.28527817 0.30190262 0.30754665 -0.56690115 -0.63808525 -0.88267344 0.59885794 -0.06633252 0.68925077 -0.38095078 -0.03697284 -0.05177101 0.5416815 -0.84708524 -0.55920136 -0.48574162 -0.37205744 0.89737785 0.36191893 0.44782016 0.55008155 -0.59685975 -0.75062275 0.64102304 -0.3382945 0.7279373 -0.03828568 0.011151648 -1.260372 0.21644954 -0.112369806 0.7246003 -0.34550953 1.4844811 -0.6425869 -0.9456399 -0.5781843 -0.5628676 0.097525805 -0.04302772 0.09782712 1.3409137 -0.022933424 -0.08992539 -0.5247784 -1.0291396 1.0227225 0.1298461 -0.47558388 0.41984975 0.07060809 1.4014422 -1.2041484 1.2965337 0.22543612 -0.10064638 8.951358 -1.2058989 0.46122247 -0.23322818 -0.4773856 -1.4280301 -0.3183665 -0.3978424 0.055470232 0.3376094 -0.19844225 0.57090235 0.56486905 0.4670022 -0.7399899 -0.7300288 0.15617739 0.47187456 -0.20039558 0.42153913 -0.050452992 0.0025197342 0.61136603 -0.60498416 0.88907945 -0.2694924 -0.48699656 -0.57739663 -1.0851763 0.28075886 -1.0113177 0.15951622 1.5241022 0.41521776 -1.1348444 -0.5642327 0.754509 0.2157397 -0.83734024 0.78099245 -0.028840214 -0.70472306 0.37787175 -0.24190974 0.754021 0.126621 -0.5780682 1.1992314 0.6195803 0.58915603 0.5239276 0.22408244 0.5458644 -0.48026276 1.7170279 0.017439969 -0.3520771 0.39084917 0.32916045 0.9120582 -0.41594082 3.598574 -0.71949387 0.9026731 -0.26360655 1.2837784 0.33172458 0.18442029 -0.1840269 -0.25153267 1.0970359 0.5806587 -0.4708665 
妈 1.1044414 0.4877604 -0.7423511 0.74041295 0.67033887 -0.9773223 0.54796284 0.527475 -0.31659943 0.49648464 -0.52058244 -1.7418778 -0.84963936 0.14609689 0.3783762 0.19769633 -0.4625317 0.9598647 1.3574549 0.10142963 0.48290312 0.6034497 0.4735568 0.09493182 0.06016252 -0.14093204 -0.5407661 -1.2980783 -0.1953317 -1.0224206 -0.2978368 0.7801777 -0.5191505 1.0319875 0.0488723 -0.8442544 -0.46709526 -1.3778684 -0.79002106 -0.81583405 -0.17467153 -0.9233771 -0.47679475 -1.071285 0.17560205 0.055206094 0.29710594 0.62235045 -0.35498416 -0.7187406 -0.17383462 6.6325917 1.106241 -0.039037496 -0.73517317 0.16547614 1.5383482 0.42329007 -0.4473291 -0.61722994 -0.06320561 0.40755525 0.010252748 0.3606438 -0.48847446 -1.4876289 0.97520894 -0.34139186 0.6250743 -0.015961498 0.30868548 -0.74422646 -0.99439555 0.52764976 1.317816 0.4508897 -0.40608174 0.28597164 -0.26862156 -0.38044643 -1.5302603 -0.21333918 -0.72923005 0.07601242 0.13607302 -0.57614505 -1.0397854 -1.5316869 0.5552367 -0.38466156 0.1550025 0.7108548 0.40065727 -0.17368841 1.3825883 0.3012735 0.0008323565 1.2440636 -0.10540085 -0.113909915 -1.105816 0.41502813 -0.15078399 -0.6917906 -1.3257084 1.6427915 0.2619201 1.323267 1.0972471 1.0803972 0.20729363 -0.22487965 -0.48693833 -0.056633875 -0.6652459 0.15687855 -0.8671813 0.36043268 0.8760928 1.0829122 0.6071961 1.16912 0.29954386 0.19244444 -0.33853495 1.0835903 -0.75615627 0.5161452 0.64965224 -0.42299715 -0.2935167 -0.12725821 0.70127165 -0.61147964 -0.43554813 -1.0685815 0.1919524 -0.592111 -0.9930869 -1.2447952 -1.1147304 0.03743674 -0.26491135 1.1774275 0.39195633 1.2454426 0.38027114 0.85128975 0.528616 0.96601355 -0.07606419 -1.0418713 0.48259583 0.5076363 -0.5554576 0.7119094 -0.12875806 -0.42049378 0.008165941 0.5821444 -0.30359286 0.7008593 1.5225469 1.6735079 0.41930833 -1.1854572 -0.16970453 -0.24970391 0.7076789 0.31799623 0.2573799 -0.13267793 -0.3852986 -1.6098406 -1.4138191 -0.5823646 0.0123312315 0.14164987 -0.016869204 0.12170634 0.43090814 -0.06154205 -0.8563028 -0.28477788 1.2260827 1.2529736 0.09480405 -1.3667066 0.07850385 -0.22113672 -0.617403 0.35072464 -0.4753577 0.17441308 0.35974294 -0.32656944 0.02906289 0.39581293 0.7347989 -0.41814628 -0.32437876 0.3870664 0.03602299 1.0781649 -0.71565235 -0.26102012 -0.19204582 -0.7841203 -0.49080703 -0.2955085 -1.0558722 -0.32601005 -0.17507342 1.2192574 -0.33004642 -1.2951758 0.04880919 -0.026226208 0.4353754 -0.41830954 -0.39886343 -0.8137813 1.0704411 -0.2120328 0.12775694 0.5876354 0.02336476 0.8235904 0.9160541 0.6116545 -0.11125468 0.5689529 -0.8735978 0.4923521 0.6419194 -0.08463118 0.021647137 -1.0994824 -1.6931415 -0.0152351335 -0.8427903 -0.026399741 0.5141982 0.34926564 0.59706324 -0.32380977 0.17984411 0.5912042 -0.526559 -0.36026013 0.82885367 -1.191186 0.35613468 -0.09877337 -0.1746832 1.1174153 -0.3573355 1.1132962 0.29407546 1.2044587 -0.8720063 -0.19162707 1.587368 -0.7549175 2.958162 -1.1530678 0.13290563 0.07878546 0.1415886 -1.0662742 -0.12709168 0.19114824 0.7210574 -1.6708623 -0.15443423 0.025802568 0.5357093 1.1083543 0.0749657 -1.2136284 -0.24787652 -0.45897064 -0.5285096 -0.14307497 -0.5939537 -1.5591643 -0.47783622 -0.26842913 -0.5776281 0.3250181 -0.72215444 -1.3004984 -0.40676686 1.5737921 0.54456985 0.83924645 -0.22338076 -0.6734663 -0.6402443 -0.019743353 -0.3300725 1.198574 0.63392967 0.28986564 0.7621545 -1.7462926 0.7759057 -0.84199977 0.5817528 -0.7401536 -0.006371945 -0.05176644 0.73662525 -0.52470875 -1.1114206 0.10066235 -0.13608225 -0.39073387 0.36795437 -0.19633833 -1.2821074 -0.027295463 0.18634532 0.78995717 1.1039834 -0.5428689 1.1460963 -0.6653474 0.16596437 -0.17911258 -0.27119577 -0.26144284 -0.6079185 0.33940923 -0.4653964 0.39416876 -0.754934 -0.21505535 -0.84987795 0.19423084 0.9641816 -0.16304593 0.92173886 0.035314605 1.53847 0.6759234 -0.2807955 -0.49232942 0.24304007 0.59567416 0.42907754 0.96048015 -0.33701855 -0.15995525 0.34964064 0.11416218 -0.29740107 -0.2891635 -0.12423872 0.26354706 0.3257271 -0.25866526 0.45333588 0.06675629 0.60222137 1.5418389 -0.6803389 0.24174115 -0.26146153 0.09065807 -0.9017831 1.4686483 0.91121554 0.5827254 -0.37545493 0.18379751 0.22529078 0.87308747 -0.5761337 -0.16740659 -0.9899379 0.10433923 -0.047645852 -0.45964947 -0.019298382 -0.7061864 -0.14150485 -0.66022915 1.2744606 0.9023805 -0.54390126 -1.7138164 0.53298616 -0.22630835 -0.48814672 1.4302624 -0.4410252 0.26978725 0.2539222 -0.88068837 -0.21329601 -0.17124236 0.15660909 -0.36272085 0.33076435 -0.6201188 -1.1251632 -0.034874044 1.304471 -0.6504389 -0.3647786 0.310161 -1.4225 0.102351926 -0.49603063 -0.08349446 1.6609403 0.7271421 -0.17616418 -0.3284632 0.051750906 -0.2058995 -0.26011658 -0.501901 -0.75060153 0.40866372 0.6297039 -0.07569968 0.65976703 -1.2867274 -0.21507856 0.12058909 -1.0779753 0.44918486 0.30255353 -0.6536399 0.3161561 -0.73294914 0.24175918 -0.29893348 0.7170108 0.14694212 0.14742482 0.63398325 -0.5828222 0.2737297 0.3948319 -0.78696656 0.14192845 -0.79994303 0.6493515 -0.0464942 -1.0685015 -2.0800056 1.0670565 -0.74905425 0.09236984 0.7379337 0.12928677 -0.6203336 -0.13249864 0.67973375 0.13978057 0.54395705 -0.12999949 0.37132275 -0.3976125 0.14382342 -0.6619369 1.1724002 -1.3902133 -0.27427408 0.94757724 0.1282546 -0.44201288 0.27846557 0.43976426 -0.8827982 -2.5718656 0.099285774 0.30275494 -0.15009013 -0.46089625 -0.25940755 1.3002886 0.9203458 0.79639286 0.27214476 0.83614457 -0.1391044 -0.5087638 -0.48968542 -0.52693796 -1.4658958 0.5734617 0.46122923 -0.21161976 0.23558421 -0.21165317 0.08100318 0.15408146 -1.0479201 -0.98676026 -0.9605134 -1.7566317 1.8603294 -0.22048599 -0.36971977 0.66396624 0.7405784 0.4754435 -0.94049084 0.9849746 -1.8996081 0.21024358 0.5067043 -0.21537729 -0.72729164 -0.34943956 0.4588458 0.3252905 -0.9463658 -0.3932043 0.08188578 0.48925394 0.18507326 0.3286411 0.3763366 1.1144717 1.6649995 -0.5105433 0.8971278 0.65694636 -1.0398496 0.27406096 0.30063832 1.2943134 -1.4656326 0.6945543 0.34584177 0.40141672 -1.0277753 1.1789082 -0.36392313 -0.07238455 -1.2839413 -0.198734 0.52112585 -0.46915224 0.5740335 0.18039618 0.5730062 -1.2902066 0.17572117 -0.6930379 -0.62985027 0.88338274 0.007229157 0.22747684 0.32414612 0.37699383 0.0054522604 -0.2025563 0.13679193 -1.1874768 -0.052233823 0.13284397 0.8459309 -1.3205075 0.15144885 -0.75482404 0.72981125 0.5222957 -0.483345 -0.21793312 1.0837181 0.4372154 -0.56632435 1.2735072 -0.43810365 1.0603262 0.7211181 0.034548394 -0.5134522 -0.71677977 -0.32878587 0.12071735 0.6434885 -0.14978635 0.16949575 -0.20006531 0.1309912 1.0775927 0.09690289 1.0810475 -0.55410194 0.15471761 -0.7780065 -1.1138909 0.4519546 0.48376653 -0.30454546 0.45078138 0.9871014 0.01870922 -1.5645088 0.038891435 0.34202033 -0.97405356 -0.43665564 -0.6980317 -0.715789 0.5636885 1.2186446 -2.7804806 -0.560839 -0.6124321 0.8107708 1.583481 -0.21937937 -0.23590316 0.294299 -0.70904917 -1.3635222 0.20714882 -1.5385488 0.3338315 0.5491356 -0.9417881 0.2896082 -0.8046602 -0.09651263 0.8853031 -0.69445103 0.030185694 -1.009359 0.5177821 0.5364178 1.2514716 -0.457621 0.029921174 -0.47326335 -0.5693326 -0.7733505 -1.3351336 0.42924967 0.56132567 -0.5065494 -1.0364057 -1.1047703 -0.71014714 0.28551388 -0.6605527 0.37793106 -0.21203189 0.27849302 -0.49127057 -0.7548324 -0.1654704 0.14228895 -0.32597286 0.22720787 -0.09784666 -0.26146963 0.06685616 1.1307405 -0.09376084 -0.3353623 0.106416404 0.12963043 1.0720545 -0.85085386 0.11105331 -1.0839845 0.3452106 0.51512337 -0.17782322 0.059229713 -0.45155716 0.9442737 0.6248319 -0.4419684 -1.6791251 -0.8188731 0.38710764 1.9283903 -0.60383636 0.1900416 0.5225496 0.18328366 0.16537967 -0.91936207 0.26695797 -0.2818793 -0.04096234 11.229768 0.24113882 -0.57890725 0.31634995 -0.62143767 -0.33533236 0.88187426 -0.26733065 0.09195426 0.653251 -0.2882651 -0.4209402 0.7503945 -0.076995574 -0.22900778 -0.39458942 0.4807576 -0.09490852 -0.037666876 0.6502341 0.48105162 -0.55319256 -1.2407346 -1.1781971 0.6313436 -1.2258763 -0.59411126 -0.41387886 0.09586144 0.05013063 -1.0283474 -0.6977661 0.09937548 -0.10749814 -1.2108394 0.54836965 0.16603427 0.14647421 -1.0403656 0.40512934 -0.38891798 -1.6436694 0.65856886 0.86838055 -0.12201512 0.044033945 -0.8233225 6.914139e-05 0.760176 -0.42106095 -0.54270196 -0.43308574 -0.027342826 -1.0579908 0.85561514 -0.07460876 -0.674541 0.6101138 -0.74511576 1.0668733 -0.27388418 4.156244 -0.41748923 1.3271258 -1.0728843 0.3358695 -0.22683421 0.63110614 -0.7670969 -0.82630664 0.85450625 1.0357931 -0.21332557 
妈 1.1062557 0.32886672 -0.64338607 0.673958 0.4041346 -0.66361123 0.5206757 0.22465484 -0.4209543 0.3311659 -0.6635036 -1.2665868 -0.67368 0.21409366 -0.0058611333 0.025924444 0.18033573 0.66407955 1.3052454 0.18526977 0.091868825 0.37833536 0.44307032 0.2544616 0.3538265 -0.114443064 -0.52251107 -1.466973 -1.0498022 -1.251124 -0.3700717 0.3142227 -1.0741026 0.81351805 0.24432737 -0.46513462 -0.109293014 -1.4721949 -0.6471053 -0.9820471 -0.093506694 -0.5311426 -1.1724596 -0.6658769 0.58070344 0.0025674552 0.20163937 0.40097764 -0.37364632 -1.1306326 -0.21127054 6.335701 0.7299692 -0.39251515 -0.6633389 0.5335223 1.7716551 0.22736995 -0.7088825 -1.0654135 0.33419493 0.10007518 -0.17206302 0.2510237 -0.5832695 -0.5455762 1.0935864 0.020833537 0.5765919 0.0073944703 0.32816148 -0.6298753 -0.15966804 0.42311084 1.0877104 0.31314272 -0.5519087 0.047980413 -0.07856202 -0.23123224 -2.2145083 0.40019017 -1.1572062 -0.14599034 -0.2620958 -0.3703989 -0.71220285 -1.2771778 0.4491148 -0.32675028 0.28506508 0.81579024 0.5443273 0.07552373 1.4891341 0.013369225 0.048886277 1.3064288 0.07861082 0.03170161 -1.1816906 0.83875906 -0.118876666 -0.898052 -1.7423407 1.4163488 0.793371 1.4641237 0.830601 0.9895754 0.64208806 -0.37033007 -0.9410292 -0.114372686 -0.60350317 0.8510454 -1.2142162 0.12602226 0.9218561 0.91587824 0.5509791 1.1116974 -0.042682976 -0.4498687 -0.081149116 1.0454603 -0.9203312 0.3938152 0.79255915 -0.07641938 0.30644375 0.33989745 0.8152915 -0.7174902 -0.16328992 -1.4889129 -0.005393425 -0.6554946 -1.1840955 -0.85385966 -0.5531266 0.14319412 -0.09085826 1.4889617 -0.065160155 1.52117 0.52753353 0.49105787 0.6147265 0.29852796 -0.3220828 -1.1258072 0.70134175 -0.053814832 -0.97506297 0.66656697 -0.0836654 -0.32653368 0.14188707 0.3298213 -0.19057421 0.49724415 1.0527112 1.3221672 -0.04017237 -1.344317 -0.14950122 -0.0011583194 0.14859065 -0.04966616 0.034293488 0.027865529 0.23296183 -1.2234042 -1.326969 0.13686205 0.035836473 0.36586863 -0.0808506 0.29847214 0.1847808 0.08218641 -0.41093177 -0.37394816 0.031331513 1.5890423 -0.07664935 -0.55373305 0.42575058 0.18913199 -0.67892075 0.44235873 -0.5067679 -0.5368318 0.19049121 -0.62624145 -0.072044075 0.79060906 1.4143856 -0.41875046 -0.21753126 0.37508324 -0.3407686 1.1863664 -0.049718417 -0.51076317 -0.5665009 -0.9784609 -0.5272846 -0.49755687 -1.076231 -0.18847501 -0.14425871 0.8800647 -0.8115838 -1.399402 0.36406082 -0.4188048 0.42627656 -0.53278494 -0.20698541 -0.58793 1.2212435 0.19026849 0.09353906 0.8863346 0.47998577 1.0847914 0.57221365 0.27433938 -0.13050538 0.6442615 -0.44152966 0.79095155 0.98007345 0.008280501 0.14510782 -1.1538124 -2.0432076 0.31117508 -0.54130393 0.093737565 0.12511101 0.40499282 0.75160503 -0.093535274 0.22329578 0.40791523 -0.9801557 -0.37214798 0.9930605 -0.8701612 0.4471862 -0.47818395 -0.31969982 1.0214518 -0.4532262 0.5988306 0.045166396 0.47344792 -0.62088346 0.34422913 1.4891638 -0.84577936 3.0422745 -0.7618179 -0.24532011 -0.54726833 0.42307633 -0.96288025 -0.31297022 0.012815721 0.20021904 -2.0339994 -0.4947965 0.30247316 0.5085801 0.40850854 -0.07732216 -1.4177653 0.25242093 -0.6171076 -0.39464182 0.24804997 -1.1879308 -1.4893452 -0.19752249 -0.33014223 -0.21935886 0.61355746 -0.40041846 -1.3906189 -0.5004326 1.1976079 0.2340208 0.9277161 -0.30784208 -0.66766834 -0.46698195 -0.20885652 -0.73275375 1.2357683 0.12469664 0.526328 0.95104253 -1.9677609 0.20441583 -0.93373215 0.9456648 -0.6723376 -0.33154562 0.05126346 0.08109784 -0.34097582 -1.1903086 0.06968456 -0.4123875 0.09181301 0.59529865 -0.6161327 -1.4796225 0.34235597 0.1214166 0.7394117 1.1323085 -0.47927195 0.97521013 -0.5216449 -0.02010053 -0.028032266 -0.059202343 0.025993679 -0.21719053 0.2448715 -0.18072656 0.8385536 -0.22721542 -0.75251925 -0.88034624 -0.0126527 0.34655875 -0.571876 1.6776695 0.2596342 1.0176543 0.24359505 -0.5899684 -0.14572673 0.08181922 1.4042598 0.58518744 0.9824566 -0.29464966 -0.09294724 0.5935122 0.092163235 -0.9534239 -0.44234523 -0.14092223 0.38567233 0.33860648 -0.12493253 0.29108822 -0.3612139 0.29984128 1.466892 -0.63672316 0.01613672 -0.13035175 0.19287387 -1.1432614 1.1263276 0.60925967 0.66564727 -0.83712053 0.004198715 -0.08769297 1.0827558 -0.81858575 -0.8396633 -0.84105825 0.19095425 -0.17651135 -0.24346864 0.5172966 -0.320673 -0.39326933 0.062946014 1.4314984 0.90497094 -0.31469592 -1.5964048 -0.20037033 0.3046843 -0.016483564 1.7637533 -0.64941144 -0.13683325 0.24979943 -0.7927404 0.45130867 0.020220803 0.18036377 0.04250715 0.49815863 -0.6064636 -1.3127154 0.3628867 0.6753628 -0.4149869 -0.537026 0.12640741 -1.0827153 0.38961434 -0.737955 -0.04115801 1.6601745 0.56215394 -0.4130614 -0.1575123 0.4894142 -0.37274164 -0.6171964 -0.2686274 -0.42055163 0.26843566 0.041049544 0.16428997 0.6813477 -0.91914785 -0.4617584 -0.19253345 -0.945656 0.38897556 0.104963616 -0.5649218 -0.2746036 -0.8431232 0.047999643 0.18521503 0.3336532 0.5279906 -0.23559225 0.67827255 0.12797508 0.36528975 -0.11801046 -0.55390483 0.05959793 -0.30823416 -0.13739371 0.29566646 -0.40202335 -1.2684093 0.8958626 -1.078041 0.27020824 0.8083905 -0.16744357 -0.8828311 0.43705723 0.4412998 0.57782406 0.50400025 -0.19159526 -0.21735482 -0.3910537 0.30015665 -0.6990264 0.8276736 -1.5345668 -0.5347531 0.66343415 0.20410731 0.07250457 0.009532966 0.58374524 -0.44345915 -2.5954869 0.059629828 0.48000038 0.08032618 -0.6024144 -0.046589017 1.2870251 1.4135548 1.2611275 0.23023131 0.4971788 -0.06199135 -0.6410769 -0.37683037 -0.42231503 -1.7904128 -0.28224653 -0.3738655 0.008439487 -0.1915994 -0.098280326 -0.23850507 0.3346623 -1.5778637 -0.42780268 -1.0360942 -1.5384052 1.5577145 0.06656569 -0.20971671 0.41458946 0.4251434 0.30603155 -1.419585 1.5401914 -1.5946348 0.21219842 0.5027656 0.07117631 -1.2307317 -0.3420195 -0.15499742 -0.26995906 -0.70893145 0.011872232 -0.31333232 0.6627084 0.4861317 0.29228038 0.13481659 0.6048618 1.65663 -0.54151255 1.248171 0.26052004 -1.0840042 0.5677048 0.42833444 1.2715355 -1.3506095 0.26366454 0.29594582 0.70657754 -0.7311475 0.92103904 0.1603821 0.16722547 -0.77777326 -0.26698625 0.42286384 -0.74398446 0.14626268 0.043853924 0.16868564 -0.961985 0.1543049 -0.33042297 -0.2993878 1.3504678 -0.52123165 0.12921193 0.59649295 -0.1809703 0.12666894 -0.64539284 0.23122929 -1.0367063 -0.20373365 0.09965276 0.90996677 -1.412483 -0.40025204 -0.7904598 0.977969 0.38651285 -0.7382897 -0.3135447 0.7782763 0.42311132 -0.18231323 1.1772624 -0.32309952 1.5078717 0.35405892 0.059295837 -0.3084427 -0.7297388 0.33509386 0.11483812 0.6640995 -0.60954195 -0.24369754 -0.47886413 0.6355799 0.79777205 -0.20041503 1.1158938 -0.8290091 0.02447708 -0.5543852 -0.7961338 -0.00947468 0.11273294 -1.0031922 0.38675937 1.69751 -0.48770598 -1.1854044 -0.5272543 0.744072 -0.8888843 0.14266734 -0.60374284 -0.40337506 0.5232882 1.358938 -2.3336895 -1.011914 -0.22121878 0.99014175 1.5519935 -0.040427282 0.09622449 -0.25871515 -0.29173234 -1.0121336 0.46548852 -1.2112962 0.8715098 0.97629356 -0.6627987 -0.13030821 -0.9348302 0.16971628 0.27372998 -0.7203123 -0.15615736 -0.8710301 0.3133429 0.10918191 0.8315761 -0.83721715 -0.033494033 -0.6435834 -0.2535022 -0.7224222 -1.2325852 0.05830918 0.54193044 -0.3487666 -1.0436037 -0.5143184 -0.3632749 0.17091538 -0.9528424 -0.052427813 -0.6935321 -0.30634692 -0.53068936 -0.430675 -0.12184973 0.37868258 -0.077684596 0.1724742 0.112385556 -0.1711082 0.34966928 1.2646532 -0.056602176 -0.35742664 0.32352895 0.34859464 0.9705776 -0.39546478 0.5190447 -0.47665718 -0.01338554 0.102758355 -0.1436315 0.55449057 0.25504035 0.5549447 0.4727055 -0.38043475 -1.3005308 -0.87013435 0.1745434 1.009465 -0.18814199 0.6206856 0.31337178 0.28388947 0.030089945 -0.75421154 0.14649457 0.11730183 -0.25549254 12.924995 0.6272019 -0.8418203 -0.040157683 -0.93953127 -1.0508269 0.8294887 -0.31479383 -0.22266108 0.8343692 -0.15212592 0.032981038 1.2850398 -0.27886915 0.2747509 -0.30946425 0.22246449 -0.18623391 -0.19184987 0.5228499 0.214066 -0.37778768 -0.43055293 -2.1192245 0.65574574 -1.64905 -0.34808776 -0.8020926 0.24560004 -0.10946823 -0.5953591 -0.31923184 -0.001623556 -0.20056868 -1.3922715 0.23360443 -0.125954 -0.064544775 -0.75912356 -0.007759694 0.48064142 -1.3932868 0.8208974 0.9226929 -0.27808905 0.29316384 -0.40659988 -0.043008253 1.0007186 -0.09840578 -0.40893382 -0.17159796 0.17472623 -0.7515962 1.2090725 -0.07416749 -0.62777674 0.43553892 -0.23044337 1.2110382 0.11917852 4.37917 0.031334296 0.7777755 -1.4148214 0.3725754 0.26884073 0.529505 -0.65223 -0.612823 1.0364851 0.8219143 0.097235516 
说 0.08711693 -0.028961647 -0.46755803 0.07562271 0.5038306 -0.8122936 0.7196503 0.38275784 -0.21128736 0.45544088 -0.7229706 0.10042979 0.8048726 -0.20921654 -1.5719454 -1.3804597 1.8548486 -0.019931853 0.0020582464 0.9832261 0.11810643 0.529848 0.4462367 -0.08175849 -0.008684412 0.24149561 0.34661105 -1.275706 0.3735187 -0.74445015 -1.2087635 -0.39370468 -0.747525 -0.71226597 0.6647781 -0.7110422 0.12222335 -0.8957369 -0.027370095 -0.45649138 0.25508776 0.8909199 0.3557068 0.33327752 -0.06602998 -0.062278844 -0.28632665 0.36759952 1.2011409 -0.14725311 -0.3284268 7.9345684 1.4030093 -0.13072741 -1.9227489 0.64877605 0.97090167 0.23962916 -0.36540887 -0.9276185 0.14706677 1.0976832 -0.3705036 1.0377066 -0.5374491 0.07489244 0.640076 -0.2436835 -0.0064990893 -0.6217674 0.10841376 -0.28764027 -0.17383374 -0.5093704 0.40461415 1.2133514 0.019934505 -0.34572917 0.07295664 -0.4742087 -0.3751463 -0.30335784 -0.47348619 -0.88049316 -0.5718474 -0.18247649 -0.12485055 0.74382937 1.2097993 -1.5114399 -0.05476162 1.0608063 0.83728296 -1.1276053 0.9089874 0.607668 -0.7646408 0.8107 -0.81945646 -0.8139641 0.3370533 1.2910889 0.8150836 0.050571322 0.12861554 0.4795975 1.1124794 0.35983926 -0.6073114 0.3221948 0.19495727 -1.9239476 -1.8455033 0.30627304 -0.5139427 1.1066407 0.016871247 -0.36702213 1.9225469 0.6442704 0.0147563 0.6717299 -0.36911622 0.093821555 0.5418119 -0.16568561 -0.4585239 -0.17993775 0.7655457 -0.016945645 -0.30083385 -0.6952497 0.20721991 -0.8460451 1.0503675 -0.8373453 -0.10661915 -0.8499377 -1.0298831 -1.536923 0.7160133 0.09285931 0.33977085 -0.27979195 0.057721883 1.075856 0.90307564 0.26078975 1.0806303 2.046104 -0.81755084 -0.8627646 0.4784517 0.003375817 -0.67166793 0.7103649 0.6802183 -0.08080991 1.1095359 0.374363 1.3983715 -0.31262836 -0.37345603 1.2180017 0.5036888 0.78345275 -0.008317649 -0.24509718 1.0225877 -0.09754926 -0.6105992 0.22913167 0.21422312 0.11358604 -1.0167326 -0.26709792 -0.3860379 -0.46724862 -0.04965343 0.035892203 0.03684731 0.3092199 0.929017 0.49153715 0.8531413 1.4064313 0.06738968 -0.5956524 0.8358056 0.54788136 -1.2532986 0.46356314 -1.0131736 -0.3771698 0.54007375 -0.4418904 0.3822306 -0.061820164 0.4128067 -1.2517979 0.2478966 -0.20472524 -0.5442136 0.8700143 0.96393305 -0.32463855 -0.015422948 -0.34884605 -0.79970014 -0.30338207 -1.0876653 0.09113198 0.28928638 0.38836774 0.1232876 -0.15102205 0.3803012 0.2779786 1.0132239 0.20572616 -0.76290387 -0.18005192 0.28296018 -0.071302496 0.21404812 0.24736756 -1.587738 1.3081155 0.66843295 -2.3288774 -0.26164967 0.8541559 -0.11888249 0.3071352 1.5436378 0.020859376 0.12700206 -1.1952652 -1.0845978 -0.87905765 -0.5726868 0.07664767 -0.21453173 0.8215126 -0.18741235 -0.28694448 0.29958314 0.37077397 -0.80642015 -0.23094955 -0.18304223 -0.48152804 0.050121583 0.7200536 -0.24148141 1.0988963 -0.18183072 0.6158978 -0.04819966 -0.5423984 -0.09033901 -0.35333702 0.7708018 0.47193366 1.9305694 -0.51876855 0.16329154 -1.7591683 0.7574383 -0.5519704 -0.52199346 0.0920721 0.5156973 -0.53885746 -0.07217342 0.11761923 0.64457893 0.34687245 0.22818297 -0.9274638 -0.8783176 -1.2747159 0.18710613 -0.24008796 -0.49825895 -0.94931716 -0.12642676 -1.3637978 -1.2589793 0.12624905 -1.2268033 -0.55176216 -0.7826569 0.13837169 -0.32532632 0.4209563 -0.114998735 -0.25890326 -0.36981374 -0.97677433 -0.24771485 0.30306923 -0.4458251 1.1546246 -0.054560952 0.35789415 0.6629883 0.3896321 -0.99094313 -1.2642658 -0.47518057 -0.4435382 -1.2407223 -0.04433787 -1.7807069 0.15889621 0.32753152 0.78884536 0.42024708 -0.68235296 -1.6964257 0.67634475 0.3384365 0.5723785 1.2620147 -0.2967205 -0.013163384 -0.28382283 -0.91608906 0.3695415 -0.56305176 -0.15883048 0.063393705 -0.63319767 0.21158129 -0.10735881 -0.540479 -0.61863995 -0.48274997 0.32975173 0.7733113 -0.3426293 0.53175116 -0.20776439 1.2369406 1.0505409 -0.018977463 0.21902467 0.04318642 -0.08559513 -0.58410007 0.90412754 -0.3011527 0.29827592 -0.12532087 -0.45719817 -0.93747133 -0.3139241 -0.7474505 0.8574553 0.25487703 -0.36479527 -0.05252406 -0.5419343 0.32860875 0.4433594 -0.98812616 -0.09592803 0.9046657 -0.25855184 0.8526117 -0.94732535 0.7915734 0.1488311 -0.19386446 0.22097006 -0.86112124 0.6254739 -1.211671 -0.7678198 -0.6328579 -0.25127268 0.5171601 0.05623488 0.45344406 -1.4387333 -0.46984684 0.28950623 1.4624121 0.13022707 0.8165229 -0.8561433 -0.034109697 0.24352166 0.23432311 0.2334061 -0.15246548 -0.6016148 0.83737785 -1.5771115 -0.32479548 -1.2574759 -0.2306179 0.121859185 0.9275955 0.35092473 0.31785572 -0.030731164 -0.587553 0.076612584 0.27358782 0.68920094 -0.9603743 0.31097472 0.59016293 -0.11787192 1.0432982 -0.9483842 -0.950601 -0.8820598 0.15241915 -0.404022 0.49026346 0.2533399 -0.0077448934 0.13552395 0.9258999 0.4500903 -0.45923465 0.47936746 -0.4108872 0.7534648 -0.7702114 -0.37890542 0.97251177 -0.6744281 -0.0022639222 -0.04061441 0.30544582 0.86610204 -0.03798028 2.2396765 0.6408328 0.9608565 -0.2449786 -1.5480404 -0.28058717 -0.5751329 -0.56458694 -0.87516886 -0.20912623 -0.8842358 -1.0628101 -0.08968927 0.20146398 -1.005289 -0.5570246 0.59859097 0.10313448 0.25262493 0.29693982 0.08101108 -0.31300724 0.11139125 0.028032824 -0.012637183 -0.2972968 0.5067991 -0.5165888 1.8051252 -1.3746623 -0.48601598 -0.73400724 0.40947545 -0.35625374 0.67355245 -0.016535878 -0.44519287 -1.1506209 0.05711741 -0.20439325 -0.23978266 -0.41087347 -0.36837655 -0.6382342 0.05593492 1.6144854 -1.3753892 0.2910096 0.42837957 -0.8448015 0.3907997 -1.2020949 -0.24464448 -0.15266731 0.51263773 0.28024286 0.01694651 -0.05671417 -0.14847407 0.6139521 -0.25803065 -0.7866993 -0.36611867 0.2854636 0.65768546 1.203083 -0.31943527 0.23353456 0.793725 -0.04777738 -1.6115779 0.4405389 -0.983316 -0.9837557 0.56666124 -0.7962667 -0.86524373 -0.079796195 0.30669445 0.9067074 -1.1606648 1.8314528 -0.17199267 -0.02307328 0.76832545 -0.0132737905 -0.037465654 0.10687873 0.88875085 -0.52927345 1.0095472 -0.4555511 -0.34927517 0.7622427 0.90816754 -0.1875195 -1.1682599 0.32702118 -0.42927325 0.6076991 -0.05223403 0.58306974 -0.26586175 0.6622455 -0.38872856 -0.6542177 -0.32200667 -1.4052014 -0.5317789 0.33157408 -0.1724693 -0.9377774 -0.24422932 -0.25760835 -0.72790873 1.9235735 -0.6961521 0.96139616 0.523434 -0.5851772 -0.6799545 0.6981081 -0.55188644 -0.15289895 0.46349484 -0.48390755 0.7134832 -0.21154891 1.1268207 -0.45705074 0.34689593 0.34887093 -0.60942644 -1.0555848 0.7384107 -0.1529372 0.099132404 -0.068593875 0.056040496 1.6023371 0.59428144 0.2548876 -0.29955488 -0.11718517 -1.1692734 -0.39718977 0.68982464 0.16592053 -0.031020299 -0.5451474 0.30102503 -0.2895819 0.43925178 0.28382397 1.1850302 0.14293565 -0.047814265 0.37050125 0.30234605 0.5676065 -1.7510556 -0.61747617 0.25626934 1.2594793 -1.355411 -0.5864507 1.5801487 0.0034610815 1.0381289 0.17296416 0.21078336 -0.007983087 1.3198222 -0.39821333 -0.64029026 0.6889196 1.468761 0.5701765 -0.20207733 0.19139509 -0.978858 -0.0023045912 -0.8272416 -0.3091971 -0.29450086 0.47122973 -0.22311366 -1.3834338 -0.8897157 -0.49367067 -0.11355607 -0.04350345 0.6474813 -0.3075088 -0.6332656 -0.2651207 1.0647131 -0.18135613 -1.5044366 0.19396183 0.5106319 -0.2552361 -0.13182442 -0.54637074 1.2353837 0.58107746 0.3965683 -0.9849256 -0.21599694 -0.6164787 1.1543779 0.044646174 -0.2363809 0.4319966 0.81664354 1.0489173 0.0027689561 -0.4856336 -0.6301882 -0.26433247 -1.4522622 -0.73860455 -0.23829046 -0.48570216 -0.70166624 -0.35433096 0.49172586 -0.028060108 0.615307 0.5179226 -1.0257298 -0.46406057 -1.3877964 0.18929651 -0.6372653 0.37603292 -0.17390689 -0.17466797 0.7484481 -0.028567037 -0.32777634 -0.39118245 0.61353195 -1.0097142 0.9799203 -0.5557842 7.337332e-05 0.14124556 0.66406345 0.17048565 -0.4995366 -0.35041755 -0.29953936 0.64274573 9.506544 -0.33389783 -0.2723728 0.9464069 -0.45073417 -0.918025 0.5933599 -0.07370384 0.45962158 0.3296582 -1.419318 1.0733814 -0.04663964 -0.92476386 1.276174 -0.52633965 0.24363713 -1.0381743 -0.8849391 -0.20712158 0.65982157 -0.45898667 0.25572118 -0.39752313 1.5393871 -1.1350958 -1.8068999 -0.47983 -0.00091391057 -0.5266261 -0.7008718 -0.26304778 -0.4791638 0.3844396 -0.9830518 0.30270064 0.110018015 0.22501153 0.074055 0.52480423 1.2629913 -0.99608546 0.5168096 1.5712186 -0.99919075 0.9378389 0.15796806 1.52987 0.73992604 0.46979636 0.069817916 -1.1901387 0.2869051 -1.3437266 1.892441 -0.35639495 -1.5880468 -1.4272575 -0.041355938 1.0390579 -1.1070807 2.8270984 -0.5955934 0.57481456 0.09932656 0.9707106 0.6600512 0.32457206 -0.6657604 0.07335375 0.15675195 1.494248 -0.4127907 
起 -0.11194257 1.0272218 -0.71247894 0.34446776 -0.16032778 -1.1667492 0.025195293 1.7510066 0.62516713 0.058554318 -0.2074539 -0.17602798 0.60980546 0.38491014 -1.4759471 -0.5256653 1.0141611 0.83651596 -0.7886322 0.5390002 0.36357796 0.6504102 0.15406638 -0.2476564 0.010934651 0.643599 0.014362887 -0.87658834 0.6661651 -0.5946332 -0.71679693 -0.92114705 0.05274807 0.030939452 1.1220126 0.14925973 -0.23914513 -1.5431234 0.08069745 -1.286987 0.6479633 0.36654195 0.0017592609 0.07271275 -0.4761838 -0.6326549 -0.3930384 0.9503705 0.60452354 0.0726583 -0.39769837 9.147587 0.23282261 0.45475724 -1.1867869 0.7017685 0.8613876 -0.51739305 0.14239058 -0.76768875 -0.7621262 0.22951475 0.046692804 -0.10592068 -0.59565663 1.1205208 0.010610584 -0.19549344 -0.5209549 -0.7521044 0.8472952 -0.39990398 0.31233448 0.7968647 0.51449364 0.493317 0.13588949 -0.29956132 0.7792977 -0.38029677 -0.24353048 0.09299623 0.1165133 -0.3665699 -0.57367647 -0.47837278 -0.46523538 1.0269821 1.1355337 -1.025172 0.49815205 0.21069744 1.0396345 0.008938609 0.1795376 -0.70054716 -0.3681918 1.2576092 -0.4109069 0.49575406 0.42563236 0.90096295 0.82073945 -0.3317162 0.21164015 0.37370646 0.18863183 0.37530234 -0.20223676 0.28688174 0.3535399 -1.6277839 -0.49635002 1.3337029 -0.68529475 0.27862948 -0.95141387 1.0525686 -0.16080202 0.42810524 -0.73046654 0.40096438 -0.36628583 -0.73805 0.3089998 0.8004205 0.08662115 -0.3896307 0.117335014 0.63353515 0.5395701 -0.051564895 0.009064287 -0.80557686 0.5335483 0.13425252 -0.018010443 -1.2628505 -1.0589757 -0.44073853 -0.776376 0.30355832 0.14129889 -0.030844465 -0.4172443 0.83472425 1.2230403 0.4542004 0.46988967 2.8930936 -0.48970854 -0.371756 0.15005061 -0.2328736 0.1373909 0.5245172 -0.09129302 0.030507207 -0.35781646 0.21960007 0.14541678 -0.5404651 0.17991546 0.39765173 0.6666087 -0.018317103 -0.5490397 -1.2028103 -0.13657632 -0.9894016 0.08934435 1.5428357 0.19872858 -0.3011818 -0.31848228 -0.17071088 0.062165737 -0.35846245 -0.3896193 -0.009457484 0.5322665 -0.078952864 0.6268335 -0.32800782 0.72271323 0.38262105 0.3321 0.17437881 0.5677861 0.45176423 -0.17042975 0.71826404 -1.2606412 -0.8746676 -0.5320851 -0.5366241 -0.044727948 -0.09207383 0.81175584 -2.090969 0.2930254 0.8832624 -0.79466355 0.8961891 0.2890922 -0.57971114 0.9916711 -1.079063 0.1458864 -1.0118104 -0.3005032 -0.4307961 0.16167907 -0.19443658 0.56434554 0.23380448 0.19734165 -0.1116901 0.85412985 0.58666027 -0.932006 0.19686255 -0.41543508 0.7987119 -0.03521685 -0.80977756 -0.9180469 1.0380378 0.8112533 -0.39620757 -0.13944273 0.4896448 0.60943395 -0.13342696 0.87312025 -0.028028138 0.33405614 -1.3104494 -1.5243044 -0.2185128 -1.0886264 0.3401915 -0.5858317 0.91934985 -0.25727782 0.44866076 -0.1527904 0.19610539 0.05771847 0.777239 0.1169375 -0.46872628 0.7302674 -0.078566365 0.6893783 -0.7211501 -0.17129973 0.25020507 -0.4519636 -0.34233055 -0.10139985 -0.33764377 0.7061911 0.442474 0.6787797 -1.267662 0.6703268 -1.2766258 0.051921964 0.5971624 -0.577956 -1.2488502 0.75658655 0.1630633 0.6227955 0.52793026 -0.0013230927 -0.039060526 0.069035 -0.58136845 -0.2095651 -0.039209664 0.31563804 0.83278966 -0.8539619 -1.0615594 -0.48657715 -0.52798295 -0.9621408 -0.54042256 -1.8734452 -0.90849996 -0.5966457 0.09130844 0.56753075 -0.5210011 -0.20003527 0.27027312 -0.76989335 -0.13668755 -0.5055064 -0.27524358 -0.07215758 0.7428302 -1.1697382 1.1912701 0.9684073 0.06428868 -1.2785867 -0.6595511 -0.49419624 -0.15963797 -1.4877534 0.62824607 -1.4478989 0.029383034 0.8171834 0.18951714 0.9772935 -0.072843075 -0.69251126 0.63713694 -0.02362211 1.0483878 1.0087855 -0.74967057 0.2781494 0.10665581 -0.62596536 -0.17883363 -0.646359 0.13600586 -0.058327127 -0.3523059 0.38201764 0.5503938 -0.017625581 0.07721959 -0.2678189 0.1374094 1.2053478 0.30994284 1.0402974 -0.30104017 0.053147845 0.6778587 -0.73114264 -0.80233794 -0.94030625 -0.27768445 0.08862137 0.553137 -0.18724808 0.57315826 0.6769295 0.3906945 -0.12981394 0.2908779 -0.8773726 0.5705036 -0.13124846 -0.6277283 0.37087744 0.14159723 -0.2101726 0.26621345 -1.163141 0.8718476 0.76801574 -0.32489204 0.8134252 -0.34312826 0.72524786 0.5782197 -0.2257523 0.36434218 -0.34207714 -0.026842609 -1.4357929 -1.4849687 0.23055494 -0.31140992 1.1636674 0.650279 -0.09223246 -0.50566226 -0.4498589 -0.99596274 -0.35753065 0.3631273 -0.043584608 -0.74271417 0.5534333 0.3351539 0.04319492 -0.11090503 0.30726117 -0.07824384 1.174323 -0.23143627 -0.089718774 -0.7174128 -0.2042121 -0.07747191 0.41055682 0.4314571 -0.18476632 -0.83072364 -0.79917264 0.0110949725 0.038992636 0.84597296 -1.6982033 0.9720807 -0.53421384 -0.31540594 0.19337475 -0.2007495 -0.35554418 -0.94548774 0.408272 -1.1554447 0.49336755 0.69641364 -0.20748621 0.7418392 0.59897023 0.62641555 0.12734577 0.23183283 -0.49903116 0.6317535 -0.31716722 -0.39726385 -0.021511242 0.12236665 0.19614549 -1.1161511 0.14684927 0.51863927 -0.012609781 0.92562246 0.4923444 1.2653043 1.3083227 -1.3849362 -0.24787226 0.40709355 0.5929356 0.030609787 -0.10320643 -0.83160394 -0.3500534 -0.21167693 0.057767034 -1.5024846 -1.263153 0.4906098 -0.7448266 1.5531645 0.61392766 0.1980601 -0.51372087 -1.0779651 0.19833171 -0.7438046 -0.1778529 0.10617951 0.4512228 1.4079802 -1.9326295 -0.6096546 -0.08669713 0.49138427 -0.6717037 -0.073548816 -0.34111786 -1.1197083 -0.5194913 0.1051179 0.31830454 0.0977605 0.51506394 -0.48046327 -0.6333644 -0.5063447 0.6631779 -1.6379167 0.58229715 0.85077846 -0.7679198 -0.83164227 -0.8533906 -0.34129572 -0.8005517 -0.7842302 0.09887308 0.4644054 0.91383064 0.3743024 0.24193567 0.23445636 0.29982093 -0.9093526 0.07410595 0.19304146 1.283906 -0.40375972 0.16854589 0.78941447 1.461411 -2.2980363 0.32925442 -1.1236094 -0.47557363 0.34829557 0.3306476 -0.5082646 -0.3453129 0.7634759 -0.17998923 -0.6172783 0.43759575 0.21064067 0.4856663 1.0743017 0.10424003 0.0786935 0.8065673 0.2694439 -0.57527435 0.7226332 0.040368415 -0.9174536 0.829359 1.172149 0.018654846 -1.0251238 0.050619766 -1.0107743 -0.26099932 -0.6975351 1.1470788 -0.54296786 -0.59083444 -1.6587201 -0.62716484 -0.31778055 -1.3849958 0.42447588 -0.9766202 -0.5277005 -1.5924898 -0.3168448 0.364198 -0.99506885 1.3739331 -1.1433706 0.14782515 0.49386418 0.38687992 -0.52697575 0.3188761 -0.45250848 0.4586802 0.7611419 -0.61734766 1.1838273 0.30443358 0.41186374 -0.6011694 -0.108463615 0.28221875 -0.45949453 -1.1812708 1.5061561 0.35860553 -0.3524205 0.24990577 -0.13967624 0.23156548 0.7283833 0.21264216 -0.18446532 -0.1909573 0.011283163 0.07924682 0.66628593 0.5421955 0.07784863 -0.012250528 -0.35544294 0.51510084 1.1572242 0.32529438 0.5571225 -0.13326964 -0.75214213 0.5245956 0.7761689 0.9259682 -2.1339025 -2.3205323 -0.3511315 0.20763975 -0.71526724 -0.2613436 1.1496212 0.18974635 0.20561543 0.8729927 0.3936637 -0.59629035 0.88932204 -0.3466249 0.5044576 0.011678759 0.19531444 1.0616145 0.11575339 0.8013542 -0.9497849 0.42087078 -0.645665 -0.50109756 0.5851417 -0.006405145 -0.26904124 0.04371576 -0.064538546 -0.14385185 -0.7085187 -0.04266036 1.4090015 -0.19382188 -1.118271 -1.0694886 0.07757659 -1.1563495 -1.0218544 0.2872912 0.19398978 -0.48467225 -0.82747674 -1.2355521 1.6459386 0.6528163 0.14072601 0.10000913 0.92838544 -0.799261 -0.3329992 -0.3470209 -0.3959649 0.09126389 0.14822464 0.00015434623 0.38826996 0.26989308 -0.48508698 -0.66865575 -1.3112459 -0.8005245 0.40050232 0.43464565 -0.33514297 -0.36059505 -0.41777095 -0.048956066 0.48736823 1.0682689 -1.1705607 0.70936495 -1.2921318 -0.009420567 -0.55524784 0.6934339 0.108000636 0.95993453 0.46349865 0.26379156 0.021848015 -1.4495022 0.10590158 -0.8146157 1.2683945 -0.060809083 -0.78992116 1.2060859 1.1707981 0.78084826 -0.5248486 0.35291395 0.0718194 0.5146447 8.073151 -0.21439523 0.42725092 0.7987251 0.6141203 -0.77390444 0.017213613 -0.38579494 0.19554926 -1.4142094 -1.4409087 0.4623116 0.0779901 -0.9569673 0.50793785 -0.28087553 -0.52605593 0.25644097 -0.5720316 -0.098689675 0.12682088 -1.4363694 1.2390872 0.03546615 0.62666297 -0.7010915 -0.88502383 -0.5879942 0.06648604 -0.5424385 -0.6359149 0.24182247 0.89039767 -0.225714 -0.71596193 0.089297004 -0.1297279 -0.73980516 -0.31552222 0.26932386 0.38571498 0.44925034 -0.6590494 0.6690465 0.5252664 1.093023 -0.04280661 -0.019676298 0.60472375 0.88386273 -0.03730382 -0.9543783 1.4160807 -0.7545115 1.2206516 -1.1655906 -2.0406826 -1.3199219 -0.035186633 -0.41041404 -0.31608826 3.0372047 -0.25312352 0.7201471 -0.3230967 0.9802439 -0.3489667 0.002934046 -0.87248194 -0.80965763 0.25701898 1.7363657 -0.17667846 
